tree
version=v4
num_class=3
num_tree_per_iteration=3
label_index=0
max_feature_idx=3664
objective=multiclass num_class:3
feature_names=Column_0 Column_1 Column_2 Column_3 Column_4 Column_5 Column_6 Column_7 Column_8 Column_9 Column_10 Column_11 Column_12 Column_13 Column_14 Column_15 Column_16 Column_17 Column_18 Column_19 Column_20 Column_21 Column_22 Column_23 Column_24 Column_25 Column_26 Column_27 Column_28 Column_29 Column_30 Column_31 Column_32 Column_33 Column_34 Column_35 Column_36 Column_37 Column_38 Column_39 Column_40 Column_41 Column_42 Column_43 Column_44 Column_45 Column_46 Column_47 Column_48 Column_49 Column_50 Column_51 Column_52 Column_53 Column_54 Column_55 Column_56 Column_57 Column_58 Column_59 Column_60 Column_61 Column_62 Column_63 Column_64 Column_65 Column_66 Column_67 Column_68 Column_69 Column_70 Column_71 Column_72 Column_73 Column_74 Column_75 Column_76 Column_77 Column_78 Column_79 Column_80 Column_81 Column_82 Column_83 Column_84 Column_85 Column_86 Column_87 Column_88 Column_89 Column_90 Column_91 Column_92 Column_93 Column_94 Column_95 Column_96 Column_97 Column_98 Column_99 Column_100 Column_101 Column_102 Column_103 Column_104 Column_105 Column_106 Column_107 Column_108 Column_109 Column_110 Column_111 Column_112 Column_113 Column_114 Column_115 Column_116 Column_117 Column_118 Column_119 Column_120 Column_121 Column_122 Column_123 Column_124 Column_125 Column_126 Column_127 Column_128 Column_129 Column_130 Column_131 Column_132 Column_133 Column_134 Column_135 Column_136 Column_137 Column_138 Column_139 Column_140 Column_141 Column_142 Column_143 Column_144 Column_145 Column_146 Column_147 Column_148 Column_149 Column_150 Column_151 Column_152 Column_153 Column_154 Column_155 Column_156 Column_157 Column_158 Column_159 Column_160 Column_161 Column_162 Column_163 Column_164 Column_165 Column_166 Column_167 Column_168 Column_169 Column_170 Column_171 Column_172 Column_173 Column_174 Column_175 Column_176 Column_177 Column_178 Column_179 Column_180 Column_181 Column_182 Column_183 Column_184 Column_185 Column_186 Column_187 Column_188 Column_189 Column_190 Column_191 Column_192 Column_193 Column_194 Column_195 Column_196 Column_197 Column_198 Column_199 Column_200 Column_201 Column_202 Column_203 Column_204 Column_205 Column_206 Column_207 Column_208 Column_209 Column_210 Column_211 Column_212 Column_213 Column_214 Column_215 Column_216 Column_217 Column_218 Column_219 Column_220 Column_221 Column_222 Column_223 Column_224 Column_225 Column_226 Column_227 Column_228 Column_229 Column_230 Column_231 Column_232 Column_233 Column_234 Column_235 Column_236 Column_237 Column_238 Column_239 Column_240 Column_241 Column_242 Column_243 Column_244 Column_245 Column_246 Column_247 Column_248 Column_249 Column_250 Column_251 Column_252 Column_253 Column_254 Column_255 Column_256 Column_257 Column_258 Column_259 Column_260 Column_261 Column_262 Column_263 Column_264 Column_265 Column_266 Column_267 Column_268 Column_269 Column_270 Column_271 Column_272 Column_273 Column_274 Column_275 Column_276 Column_277 Column_278 Column_279 Column_280 Column_281 Column_282 Column_283 Column_284 Column_285 Column_286 Column_287 Column_288 Column_289 Column_290 Column_291 Column_292 Column_293 Column_294 Column_295 Column_296 Column_297 Column_298 Column_299 Column_300 Column_301 Column_302 Column_303 Column_304 Column_305 Column_306 Column_307 Column_308 Column_309 Column_310 Column_311 Column_312 Column_313 Column_314 Column_315 Column_316 Column_317 Column_318 Column_319 Column_320 Column_321 Column_322 Column_323 Column_324 Column_325 Column_326 Column_327 Column_328 Column_329 Column_330 Column_331 Column_332 Column_333 Column_334 Column_335 Column_336 Column_337 Column_338 Column_339 Column_340 Column_341 Column_342 Column_343 Column_344 Column_345 Column_346 Column_347 Column_348 Column_349 Column_350 Column_351 Column_352 Column_353 Column_354 Column_355 Column_356 Column_357 Column_358 Column_359 Column_360 Column_361 Column_362 Column_363 Column_364 Column_365 Column_366 Column_367 Column_368 Column_369 Column_370 Column_371 Column_372 Column_373 Column_374 Column_375 Column_376 Column_377 Column_378 Column_379 Column_380 Column_381 Column_382 Column_383 Column_384 Column_385 Column_386 Column_387 Column_388 Column_389 Column_390 Column_391 Column_392 Column_393 Column_394 Column_395 Column_396 Column_397 Column_398 Column_399 Column_400 Column_401 Column_402 Column_403 Column_404 Column_405 Column_406 Column_407 Column_408 Column_409 Column_410 Column_411 Column_412 Column_413 Column_414 Column_415 Column_416 Column_417 Column_418 Column_419 Column_420 Column_421 Column_422 Column_423 Column_424 Column_425 Column_426 Column_427 Column_428 Column_429 Column_430 Column_431 Column_432 Column_433 Column_434 Column_435 Column_436 Column_437 Column_438 Column_439 Column_440 Column_441 Column_442 Column_443 Column_444 Column_445 Column_446 Column_447 Column_448 Column_449 Column_450 Column_451 Column_452 Column_453 Column_454 Column_455 Column_456 Column_457 Column_458 Column_459 Column_460 Column_461 Column_462 Column_463 Column_464 Column_465 Column_466 Column_467 Column_468 Column_469 Column_470 Column_471 Column_472 Column_473 Column_474 Column_475 Column_476 Column_477 Column_478 Column_479 Column_480 Column_481 Column_482 Column_483 Column_484 Column_485 Column_486 Column_487 Column_488 Column_489 Column_490 Column_491 Column_492 Column_493 Column_494 Column_495 Column_496 Column_497 Column_498 Column_499 Column_500 Column_501 Column_502 Column_503 Column_504 Column_505 Column_506 Column_507 Column_508 Column_509 Column_510 Column_511 Column_512 Column_513 Column_514 Column_515 Column_516 Column_517 Column_518 Column_519 Column_520 Column_521 Column_522 Column_523 Column_524 Column_525 Column_526 Column_527 Column_528 Column_529 Column_530 Column_531 Column_532 Column_533 Column_534 Column_535 Column_536 Column_537 Column_538 Column_539 Column_540 Column_541 Column_542 Column_543 Column_544 Column_545 Column_546 Column_547 Column_548 Column_549 Column_550 Column_551 Column_552 Column_553 Column_554 Column_555 Column_556 Column_557 Column_558 Column_559 Column_560 Column_561 Column_562 Column_563 Column_564 Column_565 Column_566 Column_567 Column_568 Column_569 Column_570 Column_571 Column_572 Column_573 Column_574 Column_575 Column_576 Column_577 Column_578 Column_579 Column_580 Column_581 Column_582 Column_583 Column_584 Column_585 Column_586 Column_587 Column_588 Column_589 Column_590 Column_591 Column_592 Column_593 Column_594 Column_595 Column_596 Column_597 Column_598 Column_599 Column_600 Column_601 Column_602 Column_603 Column_604 Column_605 Column_606 Column_607 Column_608 Column_609 Column_610 Column_611 Column_612 Column_613 Column_614 Column_615 Column_616 Column_617 Column_618 Column_619 Column_620 Column_621 Column_622 Column_623 Column_624 Column_625 Column_626 Column_627 Column_628 Column_629 Column_630 Column_631 Column_632 Column_633 Column_634 Column_635 Column_636 Column_637 Column_638 Column_639 Column_640 Column_641 Column_642 Column_643 Column_644 Column_645 Column_646 Column_647 Column_648 Column_649 Column_650 Column_651 Column_652 Column_653 Column_654 Column_655 Column_656 Column_657 Column_658 Column_659 Column_660 Column_661 Column_662 Column_663 Column_664 Column_665 Column_666 Column_667 Column_668 Column_669 Column_670 Column_671 Column_672 Column_673 Column_674 Column_675 Column_676 Column_677 Column_678 Column_679 Column_680 Column_681 Column_682 Column_683 Column_684 Column_685 Column_686 Column_687 Column_688 Column_689 Column_690 Column_691 Column_692 Column_693 Column_694 Column_695 Column_696 Column_697 Column_698 Column_699 Column_700 Column_701 Column_702 Column_703 Column_704 Column_705 Column_706 Column_707 Column_708 Column_709 Column_710 Column_711 Column_712 Column_713 Column_714 Column_715 Column_716 Column_717 Column_718 Column_719 Column_720 Column_721 Column_722 Column_723 Column_724 Column_725 Column_726 Column_727 Column_728 Column_729 Column_730 Column_731 Column_732 Column_733 Column_734 Column_735 Column_736 Column_737 Column_738 Column_739 Column_740 Column_741 Column_742 Column_743 Column_744 Column_745 Column_746 Column_747 Column_748 Column_749 Column_750 Column_751 Column_752 Column_753 Column_754 Column_755 Column_756 Column_757 Column_758 Column_759 Column_760 Column_761 Column_762 Column_763 Column_764 Column_765 Column_766 Column_767 Column_768 Column_769 Column_770 Column_771 Column_772 Column_773 Column_774 Column_775 Column_776 Column_777 Column_778 Column_779 Column_780 Column_781 Column_782 Column_783 Column_784 Column_785 Column_786 Column_787 Column_788 Column_789 Column_790 Column_791 Column_792 Column_793 Column_794 Column_795 Column_796 Column_797 Column_798 Column_799 Column_800 Column_801 Column_802 Column_803 Column_804 Column_805 Column_806 Column_807 Column_808 Column_809 Column_810 Column_811 Column_812 Column_813 Column_814 Column_815 Column_816 Column_817 Column_818 Column_819 Column_820 Column_821 Column_822 Column_823 Column_824 Column_825 Column_826 Column_827 Column_828 Column_829 Column_830 Column_831 Column_832 Column_833 Column_834 Column_835 Column_836 Column_837 Column_838 Column_839 Column_840 Column_841 Column_842 Column_843 Column_844 Column_845 Column_846 Column_847 Column_848 Column_849 Column_850 Column_851 Column_852 Column_853 Column_854 Column_855 Column_856 Column_857 Column_858 Column_859 Column_860 Column_861 Column_862 Column_863 Column_864 Column_865 Column_866 Column_867 Column_868 Column_869 Column_870 Column_871 Column_872 Column_873 Column_874 Column_875 Column_876 Column_877 Column_878 Column_879 Column_880 Column_881 Column_882 Column_883 Column_884 Column_885 Column_886 Column_887 Column_888 Column_889 Column_890 Column_891 Column_892 Column_893 Column_894 Column_895 Column_896 Column_897 Column_898 Column_899 Column_900 Column_901 Column_902 Column_903 Column_904 Column_905 Column_906 Column_907 Column_908 Column_909 Column_910 Column_911 Column_912 Column_913 Column_914 Column_915 Column_916 Column_917 Column_918 Column_919 Column_920 Column_921 Column_922 Column_923 Column_924 Column_925 Column_926 Column_927 Column_928 Column_929 Column_930 Column_931 Column_932 Column_933 Column_934 Column_935 Column_936 Column_937 Column_938 Column_939 Column_940 Column_941 Column_942 Column_943 Column_944 Column_945 Column_946 Column_947 Column_948 Column_949 Column_950 Column_951 Column_952 Column_953 Column_954 Column_955 Column_956 Column_957 Column_958 Column_959 Column_960 Column_961 Column_962 Column_963 Column_964 Column_965 Column_966 Column_967 Column_968 Column_969 Column_970 Column_971 Column_972 Column_973 Column_974 Column_975 Column_976 Column_977 Column_978 Column_979 Column_980 Column_981 Column_982 Column_983 Column_984 Column_985 Column_986 Column_987 Column_988 Column_989 Column_990 Column_991 Column_992 Column_993 Column_994 Column_995 Column_996 Column_997 Column_998 Column_999 Column_1000 Column_1001 Column_1002 Column_1003 Column_1004 Column_1005 Column_1006 Column_1007 Column_1008 Column_1009 Column_1010 Column_1011 Column_1012 Column_1013 Column_1014 Column_1015 Column_1016 Column_1017 Column_1018 Column_1019 Column_1020 Column_1021 Column_1022 Column_1023 Column_1024 Column_1025 Column_1026 Column_1027 Column_1028 Column_1029 Column_1030 Column_1031 Column_1032 Column_1033 Column_1034 Column_1035 Column_1036 Column_1037 Column_1038 Column_1039 Column_1040 Column_1041 Column_1042 Column_1043 Column_1044 Column_1045 Column_1046 Column_1047 Column_1048 Column_1049 Column_1050 Column_1051 Column_1052 Column_1053 Column_1054 Column_1055 Column_1056 Column_1057 Column_1058 Column_1059 Column_1060 Column_1061 Column_1062 Column_1063 Column_1064 Column_1065 Column_1066 Column_1067 Column_1068 Column_1069 Column_1070 Column_1071 Column_1072 Column_1073 Column_1074 Column_1075 Column_1076 Column_1077 Column_1078 Column_1079 Column_1080 Column_1081 Column_1082 Column_1083 Column_1084 Column_1085 Column_1086 Column_1087 Column_1088 Column_1089 Column_1090 Column_1091 Column_1092 Column_1093 Column_1094 Column_1095 Column_1096 Column_1097 Column_1098 Column_1099 Column_1100 Column_1101 Column_1102 Column_1103 Column_1104 Column_1105 Column_1106 Column_1107 Column_1108 Column_1109 Column_1110 Column_1111 Column_1112 Column_1113 Column_1114 Column_1115 Column_1116 Column_1117 Column_1118 Column_1119 Column_1120 Column_1121 Column_1122 Column_1123 Column_1124 Column_1125 Column_1126 Column_1127 Column_1128 Column_1129 Column_1130 Column_1131 Column_1132 Column_1133 Column_1134 Column_1135 Column_1136 Column_1137 Column_1138 Column_1139 Column_1140 Column_1141 Column_1142 Column_1143 Column_1144 Column_1145 Column_1146 Column_1147 Column_1148 Column_1149 Column_1150 Column_1151 Column_1152 Column_1153 Column_1154 Column_1155 Column_1156 Column_1157 Column_1158 Column_1159 Column_1160 Column_1161 Column_1162 Column_1163 Column_1164 Column_1165 Column_1166 Column_1167 Column_1168 Column_1169 Column_1170 Column_1171 Column_1172 Column_1173 Column_1174 Column_1175 Column_1176 Column_1177 Column_1178 Column_1179 Column_1180 Column_1181 Column_1182 Column_1183 Column_1184 Column_1185 Column_1186 Column_1187 Column_1188 Column_1189 Column_1190 Column_1191 Column_1192 Column_1193 Column_1194 Column_1195 Column_1196 Column_1197 Column_1198 Column_1199 Column_1200 Column_1201 Column_1202 Column_1203 Column_1204 Column_1205 Column_1206 Column_1207 Column_1208 Column_1209 Column_1210 Column_1211 Column_1212 Column_1213 Column_1214 Column_1215 Column_1216 Column_1217 Column_1218 Column_1219 Column_1220 Column_1221 Column_1222 Column_1223 Column_1224 Column_1225 Column_1226 Column_1227 Column_1228 Column_1229 Column_1230 Column_1231 Column_1232 Column_1233 Column_1234 Column_1235 Column_1236 Column_1237 Column_1238 Column_1239 Column_1240 Column_1241 Column_1242 Column_1243 Column_1244 Column_1245 Column_1246 Column_1247 Column_1248 Column_1249 Column_1250 Column_1251 Column_1252 Column_1253 Column_1254 Column_1255 Column_1256 Column_1257 Column_1258 Column_1259 Column_1260 Column_1261 Column_1262 Column_1263 Column_1264 Column_1265 Column_1266 Column_1267 Column_1268 Column_1269 Column_1270 Column_1271 Column_1272 Column_1273 Column_1274 Column_1275 Column_1276 Column_1277 Column_1278 Column_1279 Column_1280 Column_1281 Column_1282 Column_1283 Column_1284 Column_1285 Column_1286 Column_1287 Column_1288 Column_1289 Column_1290 Column_1291 Column_1292 Column_1293 Column_1294 Column_1295 Column_1296 Column_1297 Column_1298 Column_1299 Column_1300 Column_1301 Column_1302 Column_1303 Column_1304 Column_1305 Column_1306 Column_1307 Column_1308 Column_1309 Column_1310 Column_1311 Column_1312 Column_1313 Column_1314 Column_1315 Column_1316 Column_1317 Column_1318 Column_1319 Column_1320 Column_1321 Column_1322 Column_1323 Column_1324 Column_1325 Column_1326 Column_1327 Column_1328 Column_1329 Column_1330 Column_1331 Column_1332 Column_1333 Column_1334 Column_1335 Column_1336 Column_1337 Column_1338 Column_1339 Column_1340 Column_1341 Column_1342 Column_1343 Column_1344 Column_1345 Column_1346 Column_1347 Column_1348 Column_1349 Column_1350 Column_1351 Column_1352 Column_1353 Column_1354 Column_1355 Column_1356 Column_1357 Column_1358 Column_1359 Column_1360 Column_1361 Column_1362 Column_1363 Column_1364 Column_1365 Column_1366 Column_1367 Column_1368 Column_1369 Column_1370 Column_1371 Column_1372 Column_1373 Column_1374 Column_1375 Column_1376 Column_1377 Column_1378 Column_1379 Column_1380 Column_1381 Column_1382 Column_1383 Column_1384 Column_1385 Column_1386 Column_1387 Column_1388 Column_1389 Column_1390 Column_1391 Column_1392 Column_1393 Column_1394 Column_1395 Column_1396 Column_1397 Column_1398 Column_1399 Column_1400 Column_1401 Column_1402 Column_1403 Column_1404 Column_1405 Column_1406 Column_1407 Column_1408 Column_1409 Column_1410 Column_1411 Column_1412 Column_1413 Column_1414 Column_1415 Column_1416 Column_1417 Column_1418 Column_1419 Column_1420 Column_1421 Column_1422 Column_1423 Column_1424 Column_1425 Column_1426 Column_1427 Column_1428 Column_1429 Column_1430 Column_1431 Column_1432 Column_1433 Column_1434 Column_1435 Column_1436 Column_1437 Column_1438 Column_1439 Column_1440 Column_1441 Column_1442 Column_1443 Column_1444 Column_1445 Column_1446 Column_1447 Column_1448 Column_1449 Column_1450 Column_1451 Column_1452 Column_1453 Column_1454 Column_1455 Column_1456 Column_1457 Column_1458 Column_1459 Column_1460 Column_1461 Column_1462 Column_1463 Column_1464 Column_1465 Column_1466 Column_1467 Column_1468 Column_1469 Column_1470 Column_1471 Column_1472 Column_1473 Column_1474 Column_1475 Column_1476 Column_1477 Column_1478 Column_1479 Column_1480 Column_1481 Column_1482 Column_1483 Column_1484 Column_1485 Column_1486 Column_1487 Column_1488 Column_1489 Column_1490 Column_1491 Column_1492 Column_1493 Column_1494 Column_1495 Column_1496 Column_1497 Column_1498 Column_1499 Column_1500 Column_1501 Column_1502 Column_1503 Column_1504 Column_1505 Column_1506 Column_1507 Column_1508 Column_1509 Column_1510 Column_1511 Column_1512 Column_1513 Column_1514 Column_1515 Column_1516 Column_1517 Column_1518 Column_1519 Column_1520 Column_1521 Column_1522 Column_1523 Column_1524 Column_1525 Column_1526 Column_1527 Column_1528 Column_1529 Column_1530 Column_1531 Column_1532 Column_1533 Column_1534 Column_1535 Column_1536 Column_1537 Column_1538 Column_1539 Column_1540 Column_1541 Column_1542 Column_1543 Column_1544 Column_1545 Column_1546 Column_1547 Column_1548 Column_1549 Column_1550 Column_1551 Column_1552 Column_1553 Column_1554 Column_1555 Column_1556 Column_1557 Column_1558 Column_1559 Column_1560 Column_1561 Column_1562 Column_1563 Column_1564 Column_1565 Column_1566 Column_1567 Column_1568 Column_1569 Column_1570 Column_1571 Column_1572 Column_1573 Column_1574 Column_1575 Column_1576 Column_1577 Column_1578 Column_1579 Column_1580 Column_1581 Column_1582 Column_1583 Column_1584 Column_1585 Column_1586 Column_1587 Column_1588 Column_1589 Column_1590 Column_1591 Column_1592 Column_1593 Column_1594 Column_1595 Column_1596 Column_1597 Column_1598 Column_1599 Column_1600 Column_1601 Column_1602 Column_1603 Column_1604 Column_1605 Column_1606 Column_1607 Column_1608 Column_1609 Column_1610 Column_1611 Column_1612 Column_1613 Column_1614 Column_1615 Column_1616 Column_1617 Column_1618 Column_1619 Column_1620 Column_1621 Column_1622 Column_1623 Column_1624 Column_1625 Column_1626 Column_1627 Column_1628 Column_1629 Column_1630 Column_1631 Column_1632 Column_1633 Column_1634 Column_1635 Column_1636 Column_1637 Column_1638 Column_1639 Column_1640 Column_1641 Column_1642 Column_1643 Column_1644 Column_1645 Column_1646 Column_1647 Column_1648 Column_1649 Column_1650 Column_1651 Column_1652 Column_1653 Column_1654 Column_1655 Column_1656 Column_1657 Column_1658 Column_1659 Column_1660 Column_1661 Column_1662 Column_1663 Column_1664 Column_1665 Column_1666 Column_1667 Column_1668 Column_1669 Column_1670 Column_1671 Column_1672 Column_1673 Column_1674 Column_1675 Column_1676 Column_1677 Column_1678 Column_1679 Column_1680 Column_1681 Column_1682 Column_1683 Column_1684 Column_1685 Column_1686 Column_1687 Column_1688 Column_1689 Column_1690 Column_1691 Column_1692 Column_1693 Column_1694 Column_1695 Column_1696 Column_1697 Column_1698 Column_1699 Column_1700 Column_1701 Column_1702 Column_1703 Column_1704 Column_1705 Column_1706 Column_1707 Column_1708 Column_1709 Column_1710 Column_1711 Column_1712 Column_1713 Column_1714 Column_1715 Column_1716 Column_1717 Column_1718 Column_1719 Column_1720 Column_1721 Column_1722 Column_1723 Column_1724 Column_1725 Column_1726 Column_1727 Column_1728 Column_1729 Column_1730 Column_1731 Column_1732 Column_1733 Column_1734 Column_1735 Column_1736 Column_1737 Column_1738 Column_1739 Column_1740 Column_1741 Column_1742 Column_1743 Column_1744 Column_1745 Column_1746 Column_1747 Column_1748 Column_1749 Column_1750 Column_1751 Column_1752 Column_1753 Column_1754 Column_1755 Column_1756 Column_1757 Column_1758 Column_1759 Column_1760 Column_1761 Column_1762 Column_1763 Column_1764 Column_1765 Column_1766 Column_1767 Column_1768 Column_1769 Column_1770 Column_1771 Column_1772 Column_1773 Column_1774 Column_1775 Column_1776 Column_1777 Column_1778 Column_1779 Column_1780 Column_1781 Column_1782 Column_1783 Column_1784 Column_1785 Column_1786 Column_1787 Column_1788 Column_1789 Column_1790 Column_1791 Column_1792 Column_1793 Column_1794 Column_1795 Column_1796 Column_1797 Column_1798 Column_1799 Column_1800 Column_1801 Column_1802 Column_1803 Column_1804 Column_1805 Column_1806 Column_1807 Column_1808 Column_1809 Column_1810 Column_1811 Column_1812 Column_1813 Column_1814 Column_1815 Column_1816 Column_1817 Column_1818 Column_1819 Column_1820 Column_1821 Column_1822 Column_1823 Column_1824 Column_1825 Column_1826 Column_1827 Column_1828 Column_1829 Column_1830 Column_1831 Column_1832 Column_1833 Column_1834 Column_1835 Column_1836 Column_1837 Column_1838 Column_1839 Column_1840 Column_1841 Column_1842 Column_1843 Column_1844 Column_1845 Column_1846 Column_1847 Column_1848 Column_1849 Column_1850 Column_1851 Column_1852 Column_1853 Column_1854 Column_1855 Column_1856 Column_1857 Column_1858 Column_1859 Column_1860 Column_1861 Column_1862 Column_1863 Column_1864 Column_1865 Column_1866 Column_1867 Column_1868 Column_1869 Column_1870 Column_1871 Column_1872 Column_1873 Column_1874 Column_1875 Column_1876 Column_1877 Column_1878 Column_1879 Column_1880 Column_1881 Column_1882 Column_1883 Column_1884 Column_1885 Column_1886 Column_1887 Column_1888 Column_1889 Column_1890 Column_1891 Column_1892 Column_1893 Column_1894 Column_1895 Column_1896 Column_1897 Column_1898 Column_1899 Column_1900 Column_1901 Column_1902 Column_1903 Column_1904 Column_1905 Column_1906 Column_1907 Column_1908 Column_1909 Column_1910 Column_1911 Column_1912 Column_1913 Column_1914 Column_1915 Column_1916 Column_1917 Column_1918 Column_1919 Column_1920 Column_1921 Column_1922 Column_1923 Column_1924 Column_1925 Column_1926 Column_1927 Column_1928 Column_1929 Column_1930 Column_1931 Column_1932 Column_1933 Column_1934 Column_1935 Column_1936 Column_1937 Column_1938 Column_1939 Column_1940 Column_1941 Column_1942 Column_1943 Column_1944 Column_1945 Column_1946 Column_1947 Column_1948 Column_1949 Column_1950 Column_1951 Column_1952 Column_1953 Column_1954 Column_1955 Column_1956 Column_1957 Column_1958 Column_1959 Column_1960 Column_1961 Column_1962 Column_1963 Column_1964 Column_1965 Column_1966 Column_1967 Column_1968 Column_1969 Column_1970 Column_1971 Column_1972 Column_1973 Column_1974 Column_1975 Column_1976 Column_1977 Column_1978 Column_1979 Column_1980 Column_1981 Column_1982 Column_1983 Column_1984 Column_1985 Column_1986 Column_1987 Column_1988 Column_1989 Column_1990 Column_1991 Column_1992 Column_1993 Column_1994 Column_1995 Column_1996 Column_1997 Column_1998 Column_1999 Column_2000 Column_2001 Column_2002 Column_2003 Column_2004 Column_2005 Column_2006 Column_2007 Column_2008 Column_2009 Column_2010 Column_2011 Column_2012 Column_2013 Column_2014 Column_2015 Column_2016 Column_2017 Column_2018 Column_2019 Column_2020 Column_2021 Column_2022 Column_2023 Column_2024 Column_2025 Column_2026 Column_2027 Column_2028 Column_2029 Column_2030 Column_2031 Column_2032 Column_2033 Column_2034 Column_2035 Column_2036 Column_2037 Column_2038 Column_2039 Column_2040 Column_2041 Column_2042 Column_2043 Column_2044 Column_2045 Column_2046 Column_2047 Column_2048 Column_2049 Column_2050 Column_2051 Column_2052 Column_2053 Column_2054 Column_2055 Column_2056 Column_2057 Column_2058 Column_2059 Column_2060 Column_2061 Column_2062 Column_2063 Column_2064 Column_2065 Column_2066 Column_2067 Column_2068 Column_2069 Column_2070 Column_2071 Column_2072 Column_2073 Column_2074 Column_2075 Column_2076 Column_2077 Column_2078 Column_2079 Column_2080 Column_2081 Column_2082 Column_2083 Column_2084 Column_2085 Column_2086 Column_2087 Column_2088 Column_2089 Column_2090 Column_2091 Column_2092 Column_2093 Column_2094 Column_2095 Column_2096 Column_2097 Column_2098 Column_2099 Column_2100 Column_2101 Column_2102 Column_2103 Column_2104 Column_2105 Column_2106 Column_2107 Column_2108 Column_2109 Column_2110 Column_2111 Column_2112 Column_2113 Column_2114 Column_2115 Column_2116 Column_2117 Column_2118 Column_2119 Column_2120 Column_2121 Column_2122 Column_2123 Column_2124 Column_2125 Column_2126 Column_2127 Column_2128 Column_2129 Column_2130 Column_2131 Column_2132 Column_2133 Column_2134 Column_2135 Column_2136 Column_2137 Column_2138 Column_2139 Column_2140 Column_2141 Column_2142 Column_2143 Column_2144 Column_2145 Column_2146 Column_2147 Column_2148 Column_2149 Column_2150 Column_2151 Column_2152 Column_2153 Column_2154 Column_2155 Column_2156 Column_2157 Column_2158 Column_2159 Column_2160 Column_2161 Column_2162 Column_2163 Column_2164 Column_2165 Column_2166 Column_2167 Column_2168 Column_2169 Column_2170 Column_2171 Column_2172 Column_2173 Column_2174 Column_2175 Column_2176 Column_2177 Column_2178 Column_2179 Column_2180 Column_2181 Column_2182 Column_2183 Column_2184 Column_2185 Column_2186 Column_2187 Column_2188 Column_2189 Column_2190 Column_2191 Column_2192 Column_2193 Column_2194 Column_2195 Column_2196 Column_2197 Column_2198 Column_2199 Column_2200 Column_2201 Column_2202 Column_2203 Column_2204 Column_2205 Column_2206 Column_2207 Column_2208 Column_2209 Column_2210 Column_2211 Column_2212 Column_2213 Column_2214 Column_2215 Column_2216 Column_2217 Column_2218 Column_2219 Column_2220 Column_2221 Column_2222 Column_2223 Column_2224 Column_2225 Column_2226 Column_2227 Column_2228 Column_2229 Column_2230 Column_2231 Column_2232 Column_2233 Column_2234 Column_2235 Column_2236 Column_2237 Column_2238 Column_2239 Column_2240 Column_2241 Column_2242 Column_2243 Column_2244 Column_2245 Column_2246 Column_2247 Column_2248 Column_2249 Column_2250 Column_2251 Column_2252 Column_2253 Column_2254 Column_2255 Column_2256 Column_2257 Column_2258 Column_2259 Column_2260 Column_2261 Column_2262 Column_2263 Column_2264 Column_2265 Column_2266 Column_2267 Column_2268 Column_2269 Column_2270 Column_2271 Column_2272 Column_2273 Column_2274 Column_2275 Column_2276 Column_2277 Column_2278 Column_2279 Column_2280 Column_2281 Column_2282 Column_2283 Column_2284 Column_2285 Column_2286 Column_2287 Column_2288 Column_2289 Column_2290 Column_2291 Column_2292 Column_2293 Column_2294 Column_2295 Column_2296 Column_2297 Column_2298 Column_2299 Column_2300 Column_2301 Column_2302 Column_2303 Column_2304 Column_2305 Column_2306 Column_2307 Column_2308 Column_2309 Column_2310 Column_2311 Column_2312 Column_2313 Column_2314 Column_2315 Column_2316 Column_2317 Column_2318 Column_2319 Column_2320 Column_2321 Column_2322 Column_2323 Column_2324 Column_2325 Column_2326 Column_2327 Column_2328 Column_2329 Column_2330 Column_2331 Column_2332 Column_2333 Column_2334 Column_2335 Column_2336 Column_2337 Column_2338 Column_2339 Column_2340 Column_2341 Column_2342 Column_2343 Column_2344 Column_2345 Column_2346 Column_2347 Column_2348 Column_2349 Column_2350 Column_2351 Column_2352 Column_2353 Column_2354 Column_2355 Column_2356 Column_2357 Column_2358 Column_2359 Column_2360 Column_2361 Column_2362 Column_2363 Column_2364 Column_2365 Column_2366 Column_2367 Column_2368 Column_2369 Column_2370 Column_2371 Column_2372 Column_2373 Column_2374 Column_2375 Column_2376 Column_2377 Column_2378 Column_2379 Column_2380 Column_2381 Column_2382 Column_2383 Column_2384 Column_2385 Column_2386 Column_2387 Column_2388 Column_2389 Column_2390 Column_2391 Column_2392 Column_2393 Column_2394 Column_2395 Column_2396 Column_2397 Column_2398 Column_2399 Column_2400 Column_2401 Column_2402 Column_2403 Column_2404 Column_2405 Column_2406 Column_2407 Column_2408 Column_2409 Column_2410 Column_2411 Column_2412 Column_2413 Column_2414 Column_2415 Column_2416 Column_2417 Column_2418 Column_2419 Column_2420 Column_2421 Column_2422 Column_2423 Column_2424 Column_2425 Column_2426 Column_2427 Column_2428 Column_2429 Column_2430 Column_2431 Column_2432 Column_2433 Column_2434 Column_2435 Column_2436 Column_2437 Column_2438 Column_2439 Column_2440 Column_2441 Column_2442 Column_2443 Column_2444 Column_2445 Column_2446 Column_2447 Column_2448 Column_2449 Column_2450 Column_2451 Column_2452 Column_2453 Column_2454 Column_2455 Column_2456 Column_2457 Column_2458 Column_2459 Column_2460 Column_2461 Column_2462 Column_2463 Column_2464 Column_2465 Column_2466 Column_2467 Column_2468 Column_2469 Column_2470 Column_2471 Column_2472 Column_2473 Column_2474 Column_2475 Column_2476 Column_2477 Column_2478 Column_2479 Column_2480 Column_2481 Column_2482 Column_2483 Column_2484 Column_2485 Column_2486 Column_2487 Column_2488 Column_2489 Column_2490 Column_2491 Column_2492 Column_2493 Column_2494 Column_2495 Column_2496 Column_2497 Column_2498 Column_2499 Column_2500 Column_2501 Column_2502 Column_2503 Column_2504 Column_2505 Column_2506 Column_2507 Column_2508 Column_2509 Column_2510 Column_2511 Column_2512 Column_2513 Column_2514 Column_2515 Column_2516 Column_2517 Column_2518 Column_2519 Column_2520 Column_2521 Column_2522 Column_2523 Column_2524 Column_2525 Column_2526 Column_2527 Column_2528 Column_2529 Column_2530 Column_2531 Column_2532 Column_2533 Column_2534 Column_2535 Column_2536 Column_2537 Column_2538 Column_2539 Column_2540 Column_2541 Column_2542 Column_2543 Column_2544 Column_2545 Column_2546 Column_2547 Column_2548 Column_2549 Column_2550 Column_2551 Column_2552 Column_2553 Column_2554 Column_2555 Column_2556 Column_2557 Column_2558 Column_2559 Column_2560 Column_2561 Column_2562 Column_2563 Column_2564 Column_2565 Column_2566 Column_2567 Column_2568 Column_2569 Column_2570 Column_2571 Column_2572 Column_2573 Column_2574 Column_2575 Column_2576 Column_2577 Column_2578 Column_2579 Column_2580 Column_2581 Column_2582 Column_2583 Column_2584 Column_2585 Column_2586 Column_2587 Column_2588 Column_2589 Column_2590 Column_2591 Column_2592 Column_2593 Column_2594 Column_2595 Column_2596 Column_2597 Column_2598 Column_2599 Column_2600 Column_2601 Column_2602 Column_2603 Column_2604 Column_2605 Column_2606 Column_2607 Column_2608 Column_2609 Column_2610 Column_2611 Column_2612 Column_2613 Column_2614 Column_2615 Column_2616 Column_2617 Column_2618 Column_2619 Column_2620 Column_2621 Column_2622 Column_2623 Column_2624 Column_2625 Column_2626 Column_2627 Column_2628 Column_2629 Column_2630 Column_2631 Column_2632 Column_2633 Column_2634 Column_2635 Column_2636 Column_2637 Column_2638 Column_2639 Column_2640 Column_2641 Column_2642 Column_2643 Column_2644 Column_2645 Column_2646 Column_2647 Column_2648 Column_2649 Column_2650 Column_2651 Column_2652 Column_2653 Column_2654 Column_2655 Column_2656 Column_2657 Column_2658 Column_2659 Column_2660 Column_2661 Column_2662 Column_2663 Column_2664 Column_2665 Column_2666 Column_2667 Column_2668 Column_2669 Column_2670 Column_2671 Column_2672 Column_2673 Column_2674 Column_2675 Column_2676 Column_2677 Column_2678 Column_2679 Column_2680 Column_2681 Column_2682 Column_2683 Column_2684 Column_2685 Column_2686 Column_2687 Column_2688 Column_2689 Column_2690 Column_2691 Column_2692 Column_2693 Column_2694 Column_2695 Column_2696 Column_2697 Column_2698 Column_2699 Column_2700 Column_2701 Column_2702 Column_2703 Column_2704 Column_2705 Column_2706 Column_2707 Column_2708 Column_2709 Column_2710 Column_2711 Column_2712 Column_2713 Column_2714 Column_2715 Column_2716 Column_2717 Column_2718 Column_2719 Column_2720 Column_2721 Column_2722 Column_2723 Column_2724 Column_2725 Column_2726 Column_2727 Column_2728 Column_2729 Column_2730 Column_2731 Column_2732 Column_2733 Column_2734 Column_2735 Column_2736 Column_2737 Column_2738 Column_2739 Column_2740 Column_2741 Column_2742 Column_2743 Column_2744 Column_2745 Column_2746 Column_2747 Column_2748 Column_2749 Column_2750 Column_2751 Column_2752 Column_2753 Column_2754 Column_2755 Column_2756 Column_2757 Column_2758 Column_2759 Column_2760 Column_2761 Column_2762 Column_2763 Column_2764 Column_2765 Column_2766 Column_2767 Column_2768 Column_2769 Column_2770 Column_2771 Column_2772 Column_2773 Column_2774 Column_2775 Column_2776 Column_2777 Column_2778 Column_2779 Column_2780 Column_2781 Column_2782 Column_2783 Column_2784 Column_2785 Column_2786 Column_2787 Column_2788 Column_2789 Column_2790 Column_2791 Column_2792 Column_2793 Column_2794 Column_2795 Column_2796 Column_2797 Column_2798 Column_2799 Column_2800 Column_2801 Column_2802 Column_2803 Column_2804 Column_2805 Column_2806 Column_2807 Column_2808 Column_2809 Column_2810 Column_2811 Column_2812 Column_2813 Column_2814 Column_2815 Column_2816 Column_2817 Column_2818 Column_2819 Column_2820 Column_2821 Column_2822 Column_2823 Column_2824 Column_2825 Column_2826 Column_2827 Column_2828 Column_2829 Column_2830 Column_2831 Column_2832 Column_2833 Column_2834 Column_2835 Column_2836 Column_2837 Column_2838 Column_2839 Column_2840 Column_2841 Column_2842 Column_2843 Column_2844 Column_2845 Column_2846 Column_2847 Column_2848 Column_2849 Column_2850 Column_2851 Column_2852 Column_2853 Column_2854 Column_2855 Column_2856 Column_2857 Column_2858 Column_2859 Column_2860 Column_2861 Column_2862 Column_2863 Column_2864 Column_2865 Column_2866 Column_2867 Column_2868 Column_2869 Column_2870 Column_2871 Column_2872 Column_2873 Column_2874 Column_2875 Column_2876 Column_2877 Column_2878 Column_2879 Column_2880 Column_2881 Column_2882 Column_2883 Column_2884 Column_2885 Column_2886 Column_2887 Column_2888 Column_2889 Column_2890 Column_2891 Column_2892 Column_2893 Column_2894 Column_2895 Column_2896 Column_2897 Column_2898 Column_2899 Column_2900 Column_2901 Column_2902 Column_2903 Column_2904 Column_2905 Column_2906 Column_2907 Column_2908 Column_2909 Column_2910 Column_2911 Column_2912 Column_2913 Column_2914 Column_2915 Column_2916 Column_2917 Column_2918 Column_2919 Column_2920 Column_2921 Column_2922 Column_2923 Column_2924 Column_2925 Column_2926 Column_2927 Column_2928 Column_2929 Column_2930 Column_2931 Column_2932 Column_2933 Column_2934 Column_2935 Column_2936 Column_2937 Column_2938 Column_2939 Column_2940 Column_2941 Column_2942 Column_2943 Column_2944 Column_2945 Column_2946 Column_2947 Column_2948 Column_2949 Column_2950 Column_2951 Column_2952 Column_2953 Column_2954 Column_2955 Column_2956 Column_2957 Column_2958 Column_2959 Column_2960 Column_2961 Column_2962 Column_2963 Column_2964 Column_2965 Column_2966 Column_2967 Column_2968 Column_2969 Column_2970 Column_2971 Column_2972 Column_2973 Column_2974 Column_2975 Column_2976 Column_2977 Column_2978 Column_2979 Column_2980 Column_2981 Column_2982 Column_2983 Column_2984 Column_2985 Column_2986 Column_2987 Column_2988 Column_2989 Column_2990 Column_2991 Column_2992 Column_2993 Column_2994 Column_2995 Column_2996 Column_2997 Column_2998 Column_2999 Column_3000 Column_3001 Column_3002 Column_3003 Column_3004 Column_3005 Column_3006 Column_3007 Column_3008 Column_3009 Column_3010 Column_3011 Column_3012 Column_3013 Column_3014 Column_3015 Column_3016 Column_3017 Column_3018 Column_3019 Column_3020 Column_3021 Column_3022 Column_3023 Column_3024 Column_3025 Column_3026 Column_3027 Column_3028 Column_3029 Column_3030 Column_3031 Column_3032 Column_3033 Column_3034 Column_3035 Column_3036 Column_3037 Column_3038 Column_3039 Column_3040 Column_3041 Column_3042 Column_3043 Column_3044 Column_3045 Column_3046 Column_3047 Column_3048 Column_3049 Column_3050 Column_3051 Column_3052 Column_3053 Column_3054 Column_3055 Column_3056 Column_3057 Column_3058 Column_3059 Column_3060 Column_3061 Column_3062 Column_3063 Column_3064 Column_3065 Column_3066 Column_3067 Column_3068 Column_3069 Column_3070 Column_3071 Column_3072 Column_3073 Column_3074 Column_3075 Column_3076 Column_3077 Column_3078 Column_3079 Column_3080 Column_3081 Column_3082 Column_3083 Column_3084 Column_3085 Column_3086 Column_3087 Column_3088 Column_3089 Column_3090 Column_3091 Column_3092 Column_3093 Column_3094 Column_3095 Column_3096 Column_3097 Column_3098 Column_3099 Column_3100 Column_3101 Column_3102 Column_3103 Column_3104 Column_3105 Column_3106 Column_3107 Column_3108 Column_3109 Column_3110 Column_3111 Column_3112 Column_3113 Column_3114 Column_3115 Column_3116 Column_3117 Column_3118 Column_3119 Column_3120 Column_3121 Column_3122 Column_3123 Column_3124 Column_3125 Column_3126 Column_3127 Column_3128 Column_3129 Column_3130 Column_3131 Column_3132 Column_3133 Column_3134 Column_3135 Column_3136 Column_3137 Column_3138 Column_3139 Column_3140 Column_3141 Column_3142 Column_3143 Column_3144 Column_3145 Column_3146 Column_3147 Column_3148 Column_3149 Column_3150 Column_3151 Column_3152 Column_3153 Column_3154 Column_3155 Column_3156 Column_3157 Column_3158 Column_3159 Column_3160 Column_3161 Column_3162 Column_3163 Column_3164 Column_3165 Column_3166 Column_3167 Column_3168 Column_3169 Column_3170 Column_3171 Column_3172 Column_3173 Column_3174 Column_3175 Column_3176 Column_3177 Column_3178 Column_3179 Column_3180 Column_3181 Column_3182 Column_3183 Column_3184 Column_3185 Column_3186 Column_3187 Column_3188 Column_3189 Column_3190 Column_3191 Column_3192 Column_3193 Column_3194 Column_3195 Column_3196 Column_3197 Column_3198 Column_3199 Column_3200 Column_3201 Column_3202 Column_3203 Column_3204 Column_3205 Column_3206 Column_3207 Column_3208 Column_3209 Column_3210 Column_3211 Column_3212 Column_3213 Column_3214 Column_3215 Column_3216 Column_3217 Column_3218 Column_3219 Column_3220 Column_3221 Column_3222 Column_3223 Column_3224 Column_3225 Column_3226 Column_3227 Column_3228 Column_3229 Column_3230 Column_3231 Column_3232 Column_3233 Column_3234 Column_3235 Column_3236 Column_3237 Column_3238 Column_3239 Column_3240 Column_3241 Column_3242 Column_3243 Column_3244 Column_3245 Column_3246 Column_3247 Column_3248 Column_3249 Column_3250 Column_3251 Column_3252 Column_3253 Column_3254 Column_3255 Column_3256 Column_3257 Column_3258 Column_3259 Column_3260 Column_3261 Column_3262 Column_3263 Column_3264 Column_3265 Column_3266 Column_3267 Column_3268 Column_3269 Column_3270 Column_3271 Column_3272 Column_3273 Column_3274 Column_3275 Column_3276 Column_3277 Column_3278 Column_3279 Column_3280 Column_3281 Column_3282 Column_3283 Column_3284 Column_3285 Column_3286 Column_3287 Column_3288 Column_3289 Column_3290 Column_3291 Column_3292 Column_3293 Column_3294 Column_3295 Column_3296 Column_3297 Column_3298 Column_3299 Column_3300 Column_3301 Column_3302 Column_3303 Column_3304 Column_3305 Column_3306 Column_3307 Column_3308 Column_3309 Column_3310 Column_3311 Column_3312 Column_3313 Column_3314 Column_3315 Column_3316 Column_3317 Column_3318 Column_3319 Column_3320 Column_3321 Column_3322 Column_3323 Column_3324 Column_3325 Column_3326 Column_3327 Column_3328 Column_3329 Column_3330 Column_3331 Column_3332 Column_3333 Column_3334 Column_3335 Column_3336 Column_3337 Column_3338 Column_3339 Column_3340 Column_3341 Column_3342 Column_3343 Column_3344 Column_3345 Column_3346 Column_3347 Column_3348 Column_3349 Column_3350 Column_3351 Column_3352 Column_3353 Column_3354 Column_3355 Column_3356 Column_3357 Column_3358 Column_3359 Column_3360 Column_3361 Column_3362 Column_3363 Column_3364 Column_3365 Column_3366 Column_3367 Column_3368 Column_3369 Column_3370 Column_3371 Column_3372 Column_3373 Column_3374 Column_3375 Column_3376 Column_3377 Column_3378 Column_3379 Column_3380 Column_3381 Column_3382 Column_3383 Column_3384 Column_3385 Column_3386 Column_3387 Column_3388 Column_3389 Column_3390 Column_3391 Column_3392 Column_3393 Column_3394 Column_3395 Column_3396 Column_3397 Column_3398 Column_3399 Column_3400 Column_3401 Column_3402 Column_3403 Column_3404 Column_3405 Column_3406 Column_3407 Column_3408 Column_3409 Column_3410 Column_3411 Column_3412 Column_3413 Column_3414 Column_3415 Column_3416 Column_3417 Column_3418 Column_3419 Column_3420 Column_3421 Column_3422 Column_3423 Column_3424 Column_3425 Column_3426 Column_3427 Column_3428 Column_3429 Column_3430 Column_3431 Column_3432 Column_3433 Column_3434 Column_3435 Column_3436 Column_3437 Column_3438 Column_3439 Column_3440 Column_3441 Column_3442 Column_3443 Column_3444 Column_3445 Column_3446 Column_3447 Column_3448 Column_3449 Column_3450 Column_3451 Column_3452 Column_3453 Column_3454 Column_3455 Column_3456 Column_3457 Column_3458 Column_3459 Column_3460 Column_3461 Column_3462 Column_3463 Column_3464 Column_3465 Column_3466 Column_3467 Column_3468 Column_3469 Column_3470 Column_3471 Column_3472 Column_3473 Column_3474 Column_3475 Column_3476 Column_3477 Column_3478 Column_3479 Column_3480 Column_3481 Column_3482 Column_3483 Column_3484 Column_3485 Column_3486 Column_3487 Column_3488 Column_3489 Column_3490 Column_3491 Column_3492 Column_3493 Column_3494 Column_3495 Column_3496 Column_3497 Column_3498 Column_3499 Column_3500 Column_3501 Column_3502 Column_3503 Column_3504 Column_3505 Column_3506 Column_3507 Column_3508 Column_3509 Column_3510 Column_3511 Column_3512 Column_3513 Column_3514 Column_3515 Column_3516 Column_3517 Column_3518 Column_3519 Column_3520 Column_3521 Column_3522 Column_3523 Column_3524 Column_3525 Column_3526 Column_3527 Column_3528 Column_3529 Column_3530 Column_3531 Column_3532 Column_3533 Column_3534 Column_3535 Column_3536 Column_3537 Column_3538 Column_3539 Column_3540 Column_3541 Column_3542 Column_3543 Column_3544 Column_3545 Column_3546 Column_3547 Column_3548 Column_3549 Column_3550 Column_3551 Column_3552 Column_3553 Column_3554 Column_3555 Column_3556 Column_3557 Column_3558 Column_3559 Column_3560 Column_3561 Column_3562 Column_3563 Column_3564 Column_3565 Column_3566 Column_3567 Column_3568 Column_3569 Column_3570 Column_3571 Column_3572 Column_3573 Column_3574 Column_3575 Column_3576 Column_3577 Column_3578 Column_3579 Column_3580 Column_3581 Column_3582 Column_3583 Column_3584 Column_3585 Column_3586 Column_3587 Column_3588 Column_3589 Column_3590 Column_3591 Column_3592 Column_3593 Column_3594 Column_3595 Column_3596 Column_3597 Column_3598 Column_3599 Column_3600 Column_3601 Column_3602 Column_3603 Column_3604 Column_3605 Column_3606 Column_3607 Column_3608 Column_3609 Column_3610 Column_3611 Column_3612 Column_3613 Column_3614 Column_3615 Column_3616 Column_3617 Column_3618 Column_3619 Column_3620 Column_3621 Column_3622 Column_3623 Column_3624 Column_3625 Column_3626 Column_3627 Column_3628 Column_3629 Column_3630 Column_3631 Column_3632 Column_3633 Column_3634 Column_3635 Column_3636 Column_3637 Column_3638 Column_3639 Column_3640 Column_3641 Column_3642 Column_3643 Column_3644 Column_3645 Column_3646 Column_3647 Column_3648 Column_3649 Column_3650 Column_3651 Column_3652 Column_3653 Column_3654 Column_3655 Column_3656 Column_3657 Column_3658 Column_3659 Column_3660 Column_3661 Column_3662 Column_3663 Column_3664
feature_infos=[0.08500400185585022:118279.4765625] [0.09089217334985733:118397.1015625] [-0.81949913501739502:1.4213032722473145] [-0.77827942371368408:0.93508028984069824] [0.073826998472213745:117203.4765625] [0.080129437148571014:116399.890625] [-0.84674727916717529:2.8976290225982666] [-0.82047778367996216:1.8687419891357422] [0.12639449536800385:115394.640625] [0.07250446081161499:114725.1796875] [-0.82262235879898071:5.1095690727233887] [-0.81080847978591919:3.4305944442749023] [2.6330277919769287:111803.5078125] [0.066907279193401337:109505.359375] [-0.64946389198303223:7.477501392364502] [-0.71925067901611328:7.5513300895690918] [4.261873722076416:102935.8671875] [0.064826607704162598:100796.046875] [-0.55512809753417969:15.036903381347656] [-0.55329561233520508:14.597970962524414] [114.51939392089844:87435.875] [0.063739888370037079:86113.703125] [-0.58032000064849854:13.306349754333496] [-0.4636307954788208:27.872539520263672] [-0.35728687047958374:3.0079543590545654] [-0.16762015223503113:0.88181328773498535] [-0.029781689867377281:0.35695314407348633] [0:1] [0:1] [0:1] [10.325328826904297:99.912994384765625] [20.994705200195312:99.373077392578125] [27.226789474487305:98.489509582519531] [0:1] [0:1] [0.30653992295265198:128790.8828125] [-1424.724365234375:108616.4375] [0.1018095389008522:6.0692086219787598] [-0.30495846271514893:1.4526517391204834] [0:1] [-8079.88134765625:10252.2109375] [-7249.17236328125:8810.49609375] [-3408.922119140625:3419.949462890625] [0:1] [0:1] [0.22089532017707825:100] [3.0576775074005127:97.938346862792969] [0.031086428090929985:12965.9736328125] [0.048213943839073181:2.9462172985076904] [25581.2578125:1022275.375] [0.00043057720176875591:5.6001772880554199] [0:1] [0:0] [-0.7391507625579834:4.1446757316589355] [-0.87828266620635986:7.2816448211669922] [-0.90756714344024658:28.332517623901367] [0.0037910069804638624:2.3118538856506348] [0.008618352934718132:1.2598414421081543] [0.021358134225010872:1.8505749702453613] [0.092500001192092896:118229.328125] [0.25499999523162842:116382.5078125] [0.28252500295639038:116393.015625] [6.9970002174377441:112270.90625] [0:1] [0:1] [0:1] [0:1] [0.0099999997764825821:138070] [0:1] [0:1] [-7522.0732421875:149416.65625] [0:1] [0:1] [0.10003333538770676:120092.6640625] [0.11400000005960464:128695.09375] [-8194.06640625:115915.1015625] [0.11900000274181366:176735] [-46859.0625:112523.0625] [-0.76904606819152832:1.4345674514770508] [-1010416.625:39029992] [389860.71875:38811332] [0:1] [0.096788287162780762:117858.40625] [-0.64675289392471313:1.1569831371307373] [0:0.975086510181427] [-0.0060362173244357109:0.96245014667510986] [-0.0015541356988251209:0.91162073612213135] [0:1] [0:1] [0:1] [0:1] [0:1] [0:15] [0:17] [9.5447282791137695:95.282783508300781] [-229.20855712890625:280.98587036132812] [-99.779106140136719:0] [0.023369688540697098:99.990379333496094] [-0.58371657133102417:0.64987105131149292] [0.14422473311424255:138123.921875] [-183.65742492675781:101060.828125] [0.5:138070] [0.0099999997764825821:107271.390625] [0:1] none [0:0] [0:292] none none none none none none [-1:1] [-1:1] [0:0] none [0.071249999105930328:117308.9375] [-1.8052400350570679:0.95427453517913818] [-1:1] [-1:1] [4.3391479266574606e-05:0.95427453517913818] [1.6082904413604039e-16:9.3823928833007812] [0:1] [0:1] [0.0015639472985640168:0.9734075665473938] [-1:1] [3.8661491998936981e-05:1.5285365581512451] [4.7546405792236328:112712.1953125] [5.1266336441040039:120092.6640625] [-1:1] [-1:1] [-1:-1] [0:123201] [0:1] [-15:15] [0:1] [0:1] [1969.0369873046875:213834.359375] [0.47401642799377441:8.8996267318725586] [0.012099999934434891:59535.3984375] [1080.470458984375:120120.8984375] [0:1] [0:1] [-9.859868049621582:141.01570129394531] [3.6725854442920536e-05:7.2380266189575195] [0:12] none [-0.91440498828887939:0] [-0.91440498828887939:0] [20.994705200195312:99.373077392578125] [20.994705200195312:99.373077392578125] [21.664958953857422:99.373077392578125] [-0.30495846271514893:1.4526517391204834] [-0.30495846271514893:1.4526517391204834] [-0.30495846271514893:1.4526517391204834] [0.00043057720176875591:5.6001772880554199] [0.00043057720176875591:5.6001772880554199] [0.00043057720176875591:5.6001772880554199] [-3408.922119140625:3419.949462890625] [-3408.922119140625:3419.949462890625] [-3408.922119140625:3419.949462890625] [0:7] [0:3] [-2:7] [-6789.90478515625:26626.65234375] [-0.70797181129455566:1.9112832546234131] [-373391.03125:1464806.75] [656447.1875:9721875] [-1022.704833984375:49859.25390625] [-10100.6201171875:17055.6328125] none [1:1] [-0.97492790222167969:0] [-0.22252093255519867:1] [-1:1] [-1:1] [-0.99999076128005981:0.99999076128005981] [-0.99996298551559448:1] [1:366] [1:31] [1:12] [0:5] [0:1] [0:1] [0:1] none [0:1] [0:1] [0:1] [0:1] [0:1] [0:1] [0:1] [0:1] [0:1] [0:1] [0:1] [0:1] [0:1] [0:1] [0:1] [0:1] [0:1] [0:1] [0:1] [0:1] [0:1] [0:1] [0:1] [0:1] [0:1] [0:1] [0:1] [0:1] [0:1] [0:1] [0:1] [0:1] [0:1] [0:1] [0:1] [0:1] [0:1] [0:1] [0:1] [0:1] [0:1] [0:1] [0:1] [0:1] [0:1] [0:1] [0:1] [0:1] [0:1] [0:1] [0:1] [0:1] [0:1] [0:1] [0:1] [0:1] [0:1] [0:1] [0:1] [0:1] [0:1] [0:1] [0:1] [0:1] [0:1] [0:1] [0:1] [0:1] [0:1] [0:1] [0:1] [0:1] [0:1] [0:1] [0:1] [0:1] [0:1] [0:1] [0:1] [0:1] [0:1] [0:1] [0:1] [0:1] [0:1] [0:1] [0:1] [0:1] [0:1] [0:1] [0:1] [0:1] [0:1] [0:1] [0:1] [0:1] [0:1] [0:1] [0:1] [0:1] [0:1] [0:1] [0:1] [0:1] [0:1] [0:1] [0:1] [0:1] [0:1] [0:1] [0:1] [0:1] [0:1] [0:1] [0:1] [0:1] [0:1] [0:1] [0:1] [0:1] [0:1] [0:1] [0:1] [0:1] [0:1] [0:1] [0:1] [0:1] [0:1] [0:1] [0:1] [0:1] [0:1] [0:1] [0:1] [0:1] [0:1] [0:1] [0:1] [0:1] [0:1] [0:1] [0:1] [0:1] [0:1] [0:1] [0:1] [0:1] [0:1] [0:1] [0:1] [0:1] [0:1] [0:1] [0:1] [0:1] [0:1] [0:1] [0:1] [0:1] [0:1] [0:1] [0:1] [0:1] [0:1] [0:1] [0:1] [0:1] [0:1] [0:1] [0:1] [0:1] [0:1] [0:1] [0:1] [0:1] [0:1] [0:1] [0:1] [0:1] [0:1] [0:1] [0:1] [0:1] [0:1] [0:1] [0:1] [0:1] [0:1] [0:1] [0:1] [0:1] [0:1] [0:1] [0:1] [0:1] [0:1] [0:1] [0:1] [0:1] [0:1] [0:1] [0:1] [0:1] [0:1] [0:1] [0:1] [0:1] [0:1] [0:1] [0:1] [0:1] [0:1] [0:1] [0:1] [0:1] [0:1] [0:1] [0:1] [0:1] [0:1] [0:1] [0:1] [0:1] [0:1] [0:1] [0:1] [0:1] [0:1] [0:1] [0:1] [0:1] [0:1] [0:1] [0:1] [0:1] [0:1] [0:1] [0:1] [0:1] [0:1] [0:1] [0:1] [0:1] [0:1] [0:1] [0:1] [0:1] [0:1] [0:1] [0:1] [0:1] [0:1] [0:1] [0:1] [0:1] [0:1] [0:1] [0:1] [0:1] [0:1] [0:1] [0:1] [0:1] [0:1] [0:1] [0:1] [0:1] [0:1] [0:1] [0:1] [0:1] [0:1] [0:1] [0:1] [0:1] [0:1] [0:1] [0:1] [0:1] [0:1] [0:1] [0:1] [0:1] [0:1] [0:1] [0:1] [0:1] [0:1] [0:1] [0:1] [0:1] [0:1] [0:1] [0:1] [0:1] [0:1] [0:1] [0:1] [0:1] [0:1] [0:1] [0:1] [0:1] [0:1] [0:1] [0:1] [0:1] [0:1] [0:1] [0:1] [0:1] [0:1] [0:1] [0:1] [0:1] [0:1] [0:1] [0:1] [0:1] [0:1] [0:1] [0:1] [0:1] [0:1] [0:1] [0:1] [0:1] [0:1] [0:1] [0:1] [0:1] [0:1] [0:1] [0:1] [0:1] [0:1] [0:1] [0:1] [0:1] [0:1] [0:1] [0:1] [0:1] [0:1] [0:1] [0:1] [0:1] [0:1] [0:1] [0:1] [0:1] [0:1] [0:1] [0:1] [0:1] [0:1] [0:1] [0:1] [0:1] [0:1] [0:1] [0:1] [0:1] [0:1] [0:1] [0:1] [0:1] [0:1] [0:1] [0:1] [0:1] [0:1] [0:1] [0:1] [0:1] [0:1] [0:1] [0:1] [0:1] [0:1] [0:1] [0:1] [0:1] [0:1] [0:1] [1:9] [0:9] [0:9] [0:1] [0:1] [0:1] [0:1] [0:1] [1:9] [0:1] [0:1] [0:1] [0:9] [0:1] [0:0.36000001430511475] none none none none [0:1] [0:1] [0:1] [0:1] [0:1] [0:1] [0:1] [0:1] [0:1] [0:1] [0:1] [0:1] [0:1] [0:1] [0:1] [0:1] [1:9] [0:1] [0:1] [0:1] [0:1] [0:1] [0:1] [0:1] [1:59] [-1:1] [0:1] [0:1] [0:1] [1:9] [0:1] [0:1] [0:1] [0:1] [0:1] [0:1] [0:1] [0:1] [0:1] [0:1] [0:1] [0:1] [0:1] [0:1] [0:1] [0:1] none [0:1] [0:1] [0:1] [0:1] [0:2] [0:2] [0:1] [0:1] [0:1] [0:1] [0:776] [0:1] [0:887] [0:1] [0:1] [0:1] [0:1] [0:63] [0:1] [1:9] [1:9] [1:9] [1:3] [1:3] [1:3] [0:1] [0:5] [1:9] [0:1] [1:9] [0:1] [0.003242067527025938:2.9086074829101562] [0.0013171120081096888:3.2921679019927979] [0.00066323456121608615:3.5822429656982422] [0.00023118397803045809:8.6945991516113281] [5.7462541008135304e-05:21.958295822143555] [0.00059468782274052501:24.979841232299805] [-0.57735025882720947:0.42264974117279053] [0:3] [0:5] [0:7] [0:11] [0:19] [0:6] [0:12] [0:143] [0:71] [0:2] [0:5] [0:8] [0:35] [0:2] [0:5] [0:1] [0:1] [0:1] [0:1] [0:1] [0:1] [0:26] [0.047699999064207077:359.70529174804688] none [1:20] [1:20] [11.467700004577637:78.97650146484375] [1:9] [11.467700004577637:78.97650146484375] [1:9] [-0.99999988079071045:0.99999886751174927] [-0.99999970197677612:0.99999755620956421] [0:26] [1:30] [0:26] [1:60] [-1:1] [-1:1] [0:1] [0:9] [0:11] [0:11] [0:4] [-1:1] [1:13] [0:19] [0:1] [0:1] [0:1] [0.33460000157356262:359.94461059570312] [0.29449999332427979:359.92520141601562] [0.30970001220703125:359.78390502929688] [0.15950000286102295:359.99359130859375] [0:1] [0:1] [0:1] [0:1] none none none [0:11] [2:4] [0:1] none none [-1.3779900074005127:2.2007389068603516] [0:1] [-0.62878131866455078:1.2587885856628418] [0:1] [-0.39805269241333008:0.79048079252243042] [0:1] [-0.13639079034328461:0.24199867248535156] [0:1] [-0.077741801738739014:0.12393492460250854] [0:1] [0:3] [0:1] [0:1] [0:1] [0:1] [0:1] [0:1] [0:1] [0:1] [0:1] [0:1] [0:1] [-9:9] [-5:9] [-5:9] [-5:5] [-3:8] [-4:0] [0:5] [-4:0] [-5:5] [-27:30] [-0.46538847684860229:0.4577314555644989] [0.88510650396347046:0.99999886751174927] [-0.7296525239944458:0.73327773809432983] [0.67992925643920898:0.99999904632568359] [-0.99999886751174927:0.99999988079071045] [-0.99985587596893311:0.9999992847442627] [-0.99999445676803589:0.99999910593032837] [-0.99987268447875977:0.99999886751174927] [0:35] [0:3] [0:1] [0:1] [0:1] [0:1] [0:1] [0:1] [0:1] [1:715] [0:1] [0:1] [0:1] [0:4] [0:10] [-0.0625:0.090909093618392944] [1:116] [0:1] [0:1] [0:1] [0:4] [0:4] [-1:0.5] [0:2583.5] [0:3032.5] [0:989.5] [0:15501] [0:21623.5] [0:9863.5] [0:823.5] [0:2596.5] [0:9] [0:9] [0:9] [0:9] [0:9] [0:9] [0:9] [56.080001831054688:169.5] [77:268] [19.719999313354492:67] [336.48001098632812:1017] [199:1525] [233:677] [16.520000457763672:58] [45:223] [1:8] [0:1] [0:1] [0:1] [-1:2] [-4:1] [-1:5] [0:1] [0:1] [0:18] [0:3.1666667461395264] [0:1] [0:105] [0:89] [0:2583.5] [0:9] [1:8] [0:9] [-19:16] [1:377] [-0.15649867057800293:0.53846156597137451] [0:1] [1:68] [-0.3333333432674408:1.3333333730697632] [0:0] [0:0] [41:243] [40:336] [5:97] [246:1458] [193:1960] [146:943] [10:78] [28:306] [1:9] [0:9] [0:0] [0:3] [1:24] [72:273] [63:336] [27:97] [432:1638] [193:2527] [247:1008] [22:83] [59:306] [1:9] [66:383] [134:471] [29:140] [396:2298] [170:3161] [353:1363] [23:136] [99:401] [1:9] [1:9] [0:9] [26:209] [82:239] [17:71] [156:1254] [43:2477] [166:769] [13:55] [55:230] [2:8] [1:1] [112:182] [104:265] [31:86] [672:1092] [691:2699] [392:727] [29:59] [68:221] [2:8] [0:0] [0:0] [0:0] [0:0] [0:0] [0:0] [0:0] [0:0] [0:0] [1:9] [0:9] [0.01002937089651823:1240553856] [454:859629] [1318.6700439453125:155973029199872] [111495.5:346073664] [621:78496288] [-0.31140777468681335:1.4818136692047119] [0:1] [-0.13441744446754456:0.9816557765007019] [-0.063461333513259888:1.1314362287521362] [0:5.5472855567932129] [0:1] [0:1] [0.31456112861633301:22.49156379699707] [0:1] [0:1] [0:0] [0:0] [0:0] [0:0] [0:0] [0:0] [0:0] [0:0] [0:0] [0:0] [0:0] [0:0] [0:0] [89.837997436523438:114.01999664306641] [-0.047857683151960373:0.088225938379764557] [-0.068173468112945557:0.071284264326095581] [1455.5:5294.39990234375] [-0.077506653964519501:0.15413543581962585] [-0.095530793070793152:0.2177959680557251] [2237.39990234375:6977.27001953125] [-0.2278471440076828:0.19052474200725555] [-0.33253586292266846:0.27055516839027405] [11.869999885559082:82.69000244140625] [-0.62017112970352173:1.6876430511474609] [-0.61387825012207031:3.6015584468841553] [0.49900001287460327:4.875] [-0.63761800527572632:0.53106206655502319] [-0.68909657001495361:0.63449454307556152] [6860.669921875:23834.720703125] [-0.22872444987297058:0.15342092514038086] [-0.28745406866073608:0.26965880393981934] [1002.4000244140625:2689.050048828125] [-0.31680810451507568:0.15235930681228638] [-0.39892184734344482:0.26094368100166321] [-37.630001068115234:120.93000030517578] [-2.4428682327270508:0.8888888955116272] [-2.2088019847869873:1.9882628917694092] [12.772000312805176:115.08000183105469] [-0.28688737750053406:0.3601229190826416] [-0.27596366405487061:0.82840806245803833] [10.246999740600586:451.01998901367188] [-0.48820090293884277:0.86348682641983032] [-0.59799307584762573:2.0631062984466553] [35.169998168945312:413.6300048828125] [-0.49151143431663513:0.74698019027709961] [-0.678058922290802:1.1208416223526001] [49.809085845947266:80.5250244140625] [-0.15677629411220551:0.10328246653079987] [-0.21745410561561584:0.15588559210300446] [75.941024780273438:143.75137329101562] [-0.086033478379249573:0.14171640574932098] [-0.1377713680267334:0.19085121154785156] [22.950000762939453:71.290000915527344] [-0.2170562744140625:0.36287584900856018] [-0.29535377025604248:0.68409585952758789] [-0.66379153728485107:0.61238634586334229] [-0.60258907079696655:0.43395149707794189] [-0.50480687618255615:0.52844524383544922] [-0.45879253745079041:0.62488085031509399] [0:1] [0:1] [-2.0414519309997559:6.3914046287536621] [-25.087833404541016:23.838716506958008] [0:3] [-0.89946115016937256:0.90732765197753906] [-0.93531084060668945:0.81219261884689331] [-0.71511542797088623:0.74149078130722046] [5:95] [-0.8611111044883728:3] [0:1] [0:1] [-5.1799345016479492:3.7422356605529785] [5:95] [5:95] [5:95] [0:0] none [-0.00051837664796039462:0.001522483304142952] [0:1] [0:1] [-1.5:1.5] [-2.7848141193389893:3.1701858043670654] [-1:1] [0:0] [0:0] [0:0] none [0:0] none [-1:1] [0:0] [0:0] none [0:0] none [-0.99996477365493774:0.99895524978637695] [0:1] [-0.99079239368438721:0.99250262975692749] [0:1] [-0.97108763456344604:0.97307944297790527] [0:1] [0:1] [0:1] [0:1] [0:1] [0:1] [0:1] [0:1] [0:1] [0:1] [0.029999999329447746:29.5] [-1:1] [-1:1] [0:1] [0:1] [0:26] [-1:1] [-1:0] [0:1] [0:9] [0:4] [1:13] [0:19] [0:0] [0:6] [1.3600000143051147:29.360000610351562] [-0.99900001287460327:0.97850000858306885] [-0.99199998378753662:0.99930000305175781] [0:1] [0:1] [2:23] [-1:1] [-1:0] [0:1] [0:9] [0:4] [1:13] [0:19] [0:5] [0:0] [0:0] [0:0] [0:0] [0:0] [0:0] [0:0] [0:0] [0:0] [0:0] [0:0] [0:0] [0:0] [0:0] [0:1] [0:1] [-7.0203461647033691:140.46316528320312] [0.0020404260139912367:1] [-0.99766874313354492:0.99766874313354492] [-1:1] [-0.99886733293533325:0.99886733293533325] [0:1] [0:1] [0:1] [-0.99999994039535522:0.99999994039535522] [-0.99999868869781494:0.99999767541885376] [-0.99999898672103882:0.99999541044235229] [-0.99999600648880005:0.99999868869781494] [-0.50248456001281738:0.99999946355819702] [-0.99999964237213135:0.92859798669815063] [-0.99999988079071045:0.99999904632568359] [-0.99999618530273438:0.88798689842224121] [-0.99999833106994629:0.99999958276748657] [-0.99999833106994629:0.83128094673156738] [356911.65625:406606.09375] [0.0082001136615872383:0.99812954664230347] [0:1] [0:1] [0:1] [0:1] [0.00090929633006453514:0.99872416257858276] [0:11] [0:1] [1.6615406274795532:2.2343575954437256] [-0.99993026256561279:0.99993026256561279] [-0.99972105026245117:1] [-0.9999396800994873:0.9999396800994873] [-0.99975866079330444:1] [-0.99999797344207764:0.99999797344207764] [-0.99999195337295532:1] [-0.99995243549346924:0.99995243549346924] [-0.9998096227645874:1] [-0.99999076128005981:0.99999076128005981] [-0.99996298551559448:1] [-1:1] [-1:0.99774479866027832] [0:46] [0:1] [0:2310] [-1:1] [0:1] [0:1] [0:1] [0:1] [0:1] [0:1] [0:1] none none none [0:1] none [0:1] none none [0:1] [0:1] none none none none none [0:774] [0:1] [0:1] [0:1] [0:1] [0:1] [0:1] [0:1] [0:1] [0:1] [0:1] [0:1] [0:1] [0:1] [0:1] [0:1] [1:5] [0:1] [0.38559854030609131:1.4033803939819336] [-0.51699644327163696:0.47726815938949585] [-4.025266170501709:2.5336282253265381] [0:0.078194215893745422] [0:355.87249755859375] [0:0] [9.7075004577636719:31295.37890625] [0:1] [0:1] [0:1] [0:1] [-315.40969848632812:29.281089782714844] [-330.17471313476562:29.482889175415039] [-0.99999725818634033:0.99999994039535522] [-134.08625793457031:104.42270660400391] [-0.88117378950119019:4.8183107376098633] [-0.87523484230041504:9.9306669235229492] [0:353] [0:1] [-0.57494235038757324:60.296089172363281] [-0.33441558480262756:0.28941842913627625] [0:348.9617919921875] [0:26] [0:0] [0:0] [0:15] [0:1] none [0:0] none [0:357.55499267578125] [0:355.62930297851562] [-0.00012058333231834695:0.00095249665901064873] [0:1] [0:0] [-9.9999997473787516e-05:0.0006200633361004293] [-14.944544792175293:29.247243881225586] [0:359.70529174804688] [0:4] [0:1] [0:0.001522483304142952] [0:9065.32421875] [0:7] [0:1] [-8.803666423773393e-05:9.6603333076927811e-05] [-1.7449914216995239:4.2583317756652832] [0:1] [0:0] none [0:2] [0:8.9253335318062454e-05] [-20.651393890380859:11.871941566467285] [-0.023255813866853714:0.014492753893136978] [-0.0476190485060215:0] none none none none none [0:1] none none none [0:1] none none none none [0:1] none none none [0:1] [0:1] none [0:1] [0:1] [0:1] [0:1] none [0:1] [0:1] none none none none none [0:1] [0:1] none [0:1] none [0:1] none [0:1] none none none none none [0:1] none [0:1] none none none none none none [0:1] [0:1] none none none [0:1] none none none none none [0:1] none none [0:1] none [0:1] [0:1] none none none none [0:1] none none none none none none [0:1] none none [0:10] none none none [0:1] none none none none none none [0:1] [0:1] [0:1] [0:1] [0:1] [0:1] [0:1] [0:1] [0:1] [0:1] [0:1] [0:1] [0:51] [0.0060967467725276947:1] [0.078081667423248291:1] [4.6709451881837101e-16:1] [2.1612370559864758e-08:1] [0.90483742952346802:1] [0.95122945308685303:1] [0:34] [0.033373270183801651:1] [0.18268352746963501:1] [0:30] [0.049787066876888275:1] [0.22313016653060913:1] [0:10] [0.36787945032119751:1] [0.60653066635131836:1] [0:150] [3.0590231858695915e-07:1] [0:0] [0:0] [0:0] [0:116] [9.1660876933019608e-06:1] [0:350] [6.3051168535963671e-16:1] [2.5109992307648099e-08:1] [0:311] [3.1148820095515742e-14:1] [1.7649028904997976e-07:1] [0:0] [0:0] [0:0] [0:0] [0:0] [0.5:0.86666667461395264] [-9.0662603378295898:36.020317077636719] [1.076818585395813:3.4860837459564209] [0.82514446973800659:120.62063598632812] [0:1] [0:1] [0:1] [0:1] [0:1] [0:1] [0:1] [0:1] [0:1] [0:1] [0:15] [0:17] [0:1] [0:1] [0:1] [0:1] [0:1] [0:1] [0:1] [0:1] [0:1] [0:1] [0:1] [0:1] [0:1] [0:1] [0:1] [0:1] [0:1] [0:1] [0:1] [0:1] [0:1] [0:1] [0:1] [0:1] [0:1] [0:1] [0:1] [0:1] [0:1] [0:1] [0:1] [0:1] [0:1] [0:1] [0:1] [0:1] none none none none none none none none [0:1] [0:1] [0:1] [0:1] [0:1] [0:1] [1:5] [0:1] none none none [0:1] [0:0] [21288.978515625:21288.984375] none [0:1] [0:1.9199731349945068] [0.029492802917957306:1.5048855543136597] [0.30455476045608521:0.68281447887420654] [0:1] [0:1] [0:1] [0:1] [0:11] [0:3] [0:2] [0:1] [0:1] [0:1] [0:1] [0:1] [0:1] [0:1] [0:1] [0:1] [0:1] [0:1] [0:1] [0:1] [0:1] [0:1] [0:1] [0:1] [0:1] [0:1] [0:1] [0:1] [0:1] [0:1] [0:1] [0:1] [0:1] [0:1] [0:1] [0:1] [0:1] [0:1] [0:1] [0:1] [0:1] [0:1] [0:1] [0:1] [0:1] [0:1] [0:1] [0:1] [0:1] [0:1] [0:1] [0:1] [0:1] [0:1] [0:1] [0:1] [0:1] [0:1] [0:1] [0:1] [0:1] [0:1] [0:1] none [0:1] [0:1] [0:1] none [0:1] [0:1] [0:1] none none [0:10] [0:240] [5:1148] [0:1] [0:1] [0:1] [0:1] [0:1] [0:1] [0:1] [0:1] [0:1] [0:1] [0:1] [0:1] none [0:1] [0:1] [0:1] [0:1] [0:1] none [0:1] none [0:1] none [0:1] [0:1] [0:1] [0:1] [-0.99999940395355225:0.99998557567596436] [-0.99997919797897339:0.99999076128005981] [-0.99820595979690552:-0.99813354015350342] [0.059873513877391815:0.06106923520565033] [-0.97492790222167969:0] [-0.22252093255519867:1] [-0.99938440322875977:0.99676156044006348] [-0.99896913766860962:0.99587857723236084] [0:13] [0:8] [-8:13] [1:13] [1:30] [1:60] [0:1] [0:11] [0:4] [7:7] [26:42] [0:1] [0:1] [0:1] [0:1] [0:1] [0:1] [0:1] [0:1] [0:1] [0:1] [0:1] [0:1] [0:1] [0:1] [0:1] [0:1] [0:1] [0:1] [0:1] [0:1] [0:1] [0:1] [0:1] [0:1] [0:1] [0:1] [0:1] [0:1] [0:1] [0:1] [0:1] [0:1] [0:1] [0:1] [0:1] [0:1] [0:1] [0:1] [0:1] [0:1] [0:1] [0:1] [0:1] [0:1] [0:1] [0:1] [0:1] [0:1] [0:1] [0:1] [0:1] [0:1] [0:1] [0:1] [0:1] [0:1] [0:1] [0:1] [0:1] [0:1] [0:1] [0:1] [0:1] [0:1] [0:1] [0:1] [0:1] [0:1] [0:1] [0:1] [0:1] [0:1] [0:1] [0:1] [0:1] [0:1] [0:1] [0:1] [0:1] [0:1] [0:1] [0:1] [0:1] [0:1] [0:1] [0:1] [0:1] [0:1] [0:1] [0:1] [0:1] [0:1] [0:1] [0:1] [0:1] [0:1] [0:1] [0:1] [0:1] [0:1] [0:1] [0:1] [0:1] [0:1] [0:1] [0:1] [0:1] [0:1] [0:1] [0:1] [0:1] [0:1] [0:1] [0:1] [0:1] [0:1] [0:1] [0:1] [0:1] [0:1] [0:1] [0:1] [0:1] [0:1] [0:1] [0:1] [0:1] [0:1] [0:1] [0:1] [0:1] [0:1] [0:1] [0:1] [0:1] [0:1] [0:1] [0:1] [0:1] [0:1] [0:1] [0:1] [0:1] [0:1] [0:1] [0:1] [0:1] [0:1] [0:1] [0:1] [0:1] [0:1] [0:1] [0:1] [0:1] [0:1] [0:1] [0:1] [0:1] [0:1] [0:1] [0:1] [0:1] [0:1] [0:1] [0:1] [0:1] [0:1] [0:1] [0:1] [0:1] [0:1] [0:1] [0:1] [0:1] [0:1] [0:1] [0:1] [0:1] [0:1] [0:1] [0:1] [0:1] [0:1] [0:1] [0:1] [0:1] [0:1] [0:1] [0:1] [0:1] [0:1] [0:1] [0:1] [0:1] [0:1] [0:1] [0:1] [0:1] [0:1] [0:1] [0:1] [0:1] [0:1] [0:1] [0:1] [0:1] [0:1] [0:1] [0:1] [0:1] [0:1] [0:1] [0:1] [0:1] [0:1] [0:1] [0:1] [0:1] [0:1] [0:1] [0:1] [0:1] [0:1] [0:1] [0:1] [0:1] [0:1] [0:1] [0:1] [0:1] [0:1] [0:1] [0:1] [0:1] [0:1] [0:1] [0:1] [0:1] [0:1] [0:1] [0:1] [0:1] [0:1] [0:1] [0:1] [0:1] [0:1] [0:1] [0:1] [0:1] [0:1] [0:1] [0:1] [0:1] [0:1] [0:1] [0:1] [0:1] [0:1] [0:1] [0:1] [0:1] [0:1] [0:1] [0:1] [0:1] [0:1] [0:1] [0:1] [0:1] [0:1] [0:1] [0:1] [0:1] [0:1] [0:1] [0:1] [0:1] [0:1] [0:1] [0:1] [0:1] [0:1] [0:1] [0:1] [0:1] [0:1] [0:1] [0:1] [0:1] [0:1] [0:1] [0:1] [0:1] [0:1] [0:1] [0:1] [0:1] [0:1] [0:1] [0:1] [0:1] [0:1] [0:1] [0:1] [0:1] [0:1] [0:1] [0:1] [0:1] [0:1] [0:1] [0:1] [0:1] [0:1] [0:1] [0:1] [0:1] [0:1] [0:1] [0:1] [0:1] [0:1] [0:1] [0:1] [0:1] [0:1] [0:1] [0:1] [0:1] [0:1] [0:1] [0:1] [0:1] [0:1] [0:1] [0:1] [0:1] [0:1] [0:1] [0:1] [0:1] [0:1] [0:1] [0:1] [0:1] [0:1] [0:1] [0:1] [0:1] [0:1] [0:1] [0:1] [0:1] [0:1] [0:1] [0:1] [0:1] [0:1] [0:1] [0:1] [0:1] [0:1] [0:1] [0:1] [0:1] [0:1] [0:1] [0:1] [0:1] [0:1] [0:1] [0:1] [0:1] [0:1] [0:1] [0:1] [0:1] [0:1] [0:1] [0:1] [0:1] [0:1] [0:1] [0:1] [0:1] [0:1] [0:1] [0:1] [0:1] [0:1] [0:1] [0:1] [0:1] [0:1] [0:1] [0:1] [0:1] [0:1] [0:1] [0:1] [0:1] [0:1] [0:1] [0:1] [0:1] [0:1] [0:1] [0:1] [0:1] [0:1] [0:1] [0:1] [0:1] [0:1] [0:1] [0:1] [0:1] [0:1] [0:1] [0:1] [0:1] [0:1] [0:1] [0:1] [0:1] [0:1] [0:1] [0:1] [0:1] [0:1] [0:1] [0:1] [0:1] [0:1] [0:1] [0:1] [0:1] [0:1] [0:1] [0:1] [0:1] [0:1] [0:1] [0:1] [0:1] [0:1] [0:1] [0:1] [0:1] [0:1] [0:1] [0:1] [0:1] [0:1] [0:1] [0:1] [0:1] [0:1] [0:1] [0:1] [0:1] [0:1] [0:1] [0:1] [0:1] [0:1] [0:1] [0:1] [0:1] [0:1] [0:1] [0:1] [0:1] [0:1] [0:1] [0:1] [0:1] [0:1] [0:1] [0:1] [0:1] [0:1] [0:1] [0:1] [0:1] [0:1] [0:1] [0:1] [0:1] [0:1] [0:1] [0:1] [0:1] [0:1] [0:1] [0:1] [0:1] [0:1] [0:1] [0:1] [0:1] [0:1] [0:1] [0:1] [0:1] [0:1] [0:1] [0:1] [0:1] [0:1] [0:1] [0:1] [0:1] [0:1] [0:1] [0:1] [0:1] [0:1] [0:1] [0:1] [0:1] [0:1] [0:1] [0:1] [0:1] [0:1] [0:1] [0:1] [0:1] [0:1] [0:1] [0:1] [0:1] [0:1] [0:1] [0:1] [0:1] [0:1] [0:1] [0:1] [0:1] [0:1] [0:1] [0:1] [0:1] [0:1] [0:1] [0:1] [0:1] [0:1] [0:1] [0:1] [0:1] [0:1] [0:1] [0:1] [0:1] [0:1] [0:1] [0:1] [0:1] [0:1] [0:1] [0:1] [0:1] [0:1] [0:1] [0:1] [0:1] [0:1] [0:1] [0:1] [0:1] [0:1] [0:1] [0:1] [0:1] [0:1] [0:1] [0:1] [0:1] [0:1] [0:1] [0:1] [0:1] [0:1] [0:1] [0:1] [0:1] [0:1] [0:1] [0:1] [0:1] [0:1] [0:1] [0:1] [0:1] [0:1] [0:1] [0:1] [0:1] [0:1] [0:1] [0:1] [0:1] [0:1] [0:1] [0:1] [0:1] [0:1] [0:1] [0:1] [0:1] [0:1] [0:1] [0:1] [0:1] [0:1] [0:1] [0:1] [0:1] [0:1] [0:1] [0:1] [0:1] [0:1] [0:1] [0:1] [0:1] [0:1] [0:1] [0:1] [0:1] [0:1] [0:1] [0:1] [0:1] [0:1] [0:1] [0:1] [0:1] [0:1] [0:1] [0:1] [0:1] [0:1] [0:1] [0:1] [0:1] [0:1] [0:1] [0:1] [0:1] [0:1] [0:1] [0:1] [0:1] [0:1] [0:1] [0:1] [0:1] [0:1] [0:1] [0:1] [0:1] [0:1] [0:1] [0:1] [0:1] [0:1] [0:1] [0:1] [0:1] [0:1] [0:1] [0:1] [0:1] [0:1] [0:1] [0:1] [0:1] [0:1] [0:1] [0:1] [0:1] [0:1] [0:1] [0:1] [0:1] [0:1] [0:1] [0:1] [0:1] [0:1] [0:1] [0:1] [0:1] [0:1] [0:1] [0:1] [0:1] [0:1] [0:1] [0:1] [0:1] [0:1] [0:1] [0:1] [0:1] [0:1] [0:1] [0:1] [0:1] [0:1] [0:1] [0:1] [0:1] [0:1] [0:1] [0:1] [0:1] [0:1] [0:1] [0:1] [0:1] [0:1] [0:1] [0:1] [0:1] [0:1] [0:1] [0:1] [0:1] [0:1] [0:1] [0:1] [0:1] [0:1] [0:1] [0:1] [0:1] [0:1] [0:1] [0:1] [0:1] [0:1] [0:1] [0:1] [0:1] [0:1] [0:1] [0:1] [0:1] [0:1] [0:1] [0:1] [0:1] [0:1] [0:1] [0:1] [0:1] [0:1] [0:1] [0:1] [0:1] [0:1] [0:1] [0:1] [0:1] [0:1] [0:1] [0:1] [0:1] [0:1] [0:1] [0:1] [0:1] [0:1] [0:1] [0:1] [0:1] [0:1] [0:1] [0:1] [0:1] [0:1] [0:1] [0:1] [0:1] [0:1] [0:1] [0:1] [0:1] [0:1] [0:1] [0:1] [0:1] [0:1] [0:1] [0:1] [0:1] [0:1] [0:1] [0:1] [0:1] [0:1] [0:1] [0:1] [0:1] [0:1] [0:1] [0:1] [0:1] [0:1] [0:1] [0:1] [0:1] [0:1] [0:1] [0:1] [0:1] [0:1] [0:1] [0:1] [0:1] [0:1] [0:1] [0:1] [0:1] [0:1] [0:1] [0:1] [0:1] [0:1] [0:1] [0:1] [0:1] [0:1] [0:1] [0:1] [0:1] [0:1] [0:1] [0:1] [0:1] [0:1] [0:1] [0:1] [0:1] [0:1] [0:1] [0:1] [0:1] [0:1] [0:1] [0:1] [0:1] [0:1] [0:1] [0:1] [0:1] [0:1] [0:1] [0:1] [0:1] [0:1] [0:1] [0:1] [0:1] [0:1] [0:1] [0:1] [0:1] [0:1] [0:1] [0:1] [0:1] [0:1] [0:1] [0:1] [0:1] [0:1] [0:1] [0:1] [0:1] [0:1] [0:1] [0:1] [0:1] [0:1] [0:1] [0:1] [0:1] [0:1] [0:1] [0:1] [0:1] [0:1] [0:1] [0:1] [0:1] [0:1] [0:1] [0:1] [0:1] [0:1] [0:1] [0:1] [0:1] [0:1] [0:1] [0:1] [0:1] [0:1] [0:1] [0:1] [0:1] [0:1] [0:1] [0:1] [0:1] [0:1] [0:1] [0:1] [0:1] [0:1] [0:1] [0:1] [0:1] [0:1] [0:1] [0:1] [0:1] [0:1] [0:1] [0:1] [0:1] [0:1] [0:1] [0:1] [0:1] [0:1] [0:1] [0:1] [0:1] [0:1] [0:1] [0:1] [0:1] [0:1] [0:1] [0:1] [0:1] [0:1] [0:1] [0:1] [0:1] [0:1] [0:1] [0:1] [0:1] [0:1] [0:1] [0:1] [0:1] [0:1] [0:1] [0:1] [0:1] [0:1] [0:1] [0:1] [0:1] [0:1] [0:1] [0:1] [0:1] [0:1] [0:1] [0:1] [0:1] [0:1] [0:1] [0:1] [0:1] [0:1] [0:1] [0:1] [0:1] [0:1] [0:1] [0:1] [0:1] [0:1] [0:1] [0:1] [0:1] [0:1] [0:1] [0:1] [0:1] [0:1] [0:1] [0:1] [0:1] [0:1] [0:1] [0:1] [0:1] [0:1] [0:1] [0:1] [0:1] [0:1] [0:1] [0:1] [0:1] [0:1] [0:1] [0:1] [0:1] [0:1] [0:1] [0:1] [0:1] [0:1] [0:1] [0:1] [0:1] [0:1] [0:1] [0:1] [0:1] [0:1] [0:1] [0:1] [0:1] [0:1] [0:1] [0:1] [0:1] [0:1] [0:1] [0:1] [0:1] [0:1] [0:1] [0:1] [0:1] [0:1] [0:1] [0:1] [0:1] [0:1] [0:1] [0:1] [0:1] [0:1] [0:1] [0:1] [0:1] [0:1] [0:1] [0:1] [0:1] [0:1] [0:1] [0:1] [0:1] [0:1] [0:1] [0:1] [0:1] [0:1] [0:1] [0:1] [0:1] [0:1] [0:1] [0:1] [0:1] [0:1] [0:1] [0:1] [0:1] [0:1] [0:1] [0:1] [0:1] [0:1] [0:1] [0:1] [0:1] [0:1] [0:1] [0:1] [0:1] [0:1] [0:1] [0:1] [0:1] [0:1] [0:1] [0:1] [0:1] [0:1] [0:1] [0:1] [0:1] [0:1] [0:1] [0:1] [0:1] [0:1] [0:1] [0:1] [0:1] [0:1] [0:1] [0:1] [0:1] [0:1] [0:1] [0:1] [0:1] [0:1] [0:1] [0:1] [0:1] [0:1] [0:1] [0:1] [0:1] [0:1] [0:1] [0:1] [0:1] [0:1] [0:1] [0:1] [0:1] [0:1] [0:1] [0:1] [0:1] [0:1] [0:1] [0:1] [0:1] [0:1] [0:1] [0:1] [0:1] [0:1] [0:1] [0:1] [0:1] [0:1] [0:1] [0:1] [0:1] [0:1] [0:1] [0:1] [0:1] [0:1] [0:1] [0:1] [0:1] [0:1] [0:1] [0:1] [0:1] [0:1] [0:1] [0:1] [0:1] [0:1] [0:1] [0:1] [0:1] [0:1] [0:1] [0:1] [0:1] [0:1] [0:1] [0:1] [0:1] [0:1] [0:1] [0:1] [0:1] [0:1] [0:1] [0:1] [0:1] [0:1] [0:1] [0:1] [0:1] [0:1] [0:1] [0:1] [0:1] [0:1] [0:1] [0:1] [0:1] [0:1] [0:1] [0:1] [0:1] [0:1] [0:1] [0:1] [0:1] [0:1] [0:1] [0:1] [0:1] [0:1] [0:1] [0:1] [0:1] [0:1] [0:1] [0:1] [0:1] [0:1] [0:1] [0:1] [0:1] [0:1] [0:1] [0:1] [0:1] [0:1] [0:1] [0:1] [0:1] [0:1] [0:1] [0:1] [0:1] [0:1] [0:1] [0:1] [0:1] [0:1] [0:1] [0:1] [0:1] [0:1] [0:1] [0:1] [0:1] [0:1] [0:1] [0:1] [0:1] [0:1] [0:1] [0:1] [0:1] [0:1] [0:1] [0:1] [0:1] [0:1] [0:1] [0:1] [0:1] [0:1] [0:1] [0:1] [0:1] [0:1] [0:1] [0:1] [0:1] [0:1] [0:1] [0:1] [0:1] [0:1] [0:1] [0:1] [0:1] [0:1] [0:1] [0:1] [0:1] [0:1] [0:1] [0:1] [0:1] [0:1] [0:1] [0:1] [0:1] [0:1] [0:1] [0:1] [0:1] [0:1] [0:1] [0:1] [0:1] [0:1] [0:1] [0:1] [0:1] [0:1] [0:1] [0:1] [0:1] [0:1] [0:1] [0:1] [0:1] [0:1] [0:1] [0:1] [0:1] [0:1] [0:1] [0:1] [0:1] [0:1] [0:1] [0:1] [0:1] [0:1] [0:1] [0:1] [0:1] [0:1] [0:1] [0:1] [0:1] [0:1] [0:1] [0:1] [0:1] [0:1] [0:1] [0:1] [0:1] [0:1] [0:1] [0:1] [0:1] [0:1] [0:1] [0:1] [0:1] [0:1] [0:1] [0:1] [0:1] [0:1] [0:1] [0:1] [0:1] [0:1] [0:1] [0:1] [0:1] [0:1] [0:1] [0:1] [0:1] [0:1] [0:1] [0:1] [0:1] [0:1] [0:1] [0:1] [0:1] [0:1] [0:1] [0:1] [0:1] [0:1] [0:1] [0:1] [0:1] [0:1] [0:1] [0:1] [0:1] [0:1] [0:1] [0:1] [0:1] [0:1] [0:1] [0:1] [0:1] [0:1] [0:1] [0:1] [0:1] [0:1] [0:1] [0:1] [0:1] [0:1] [0:1] [0:1] [0:1] [0:1] [0:1] [0:1] [0:1] [0:1] [0:1] [0:1] [0:1] [0:1] [0:1] [0:1] [0:1] [0:1] [0:1] [0:1] [0:1] [0:1] [0:1] [0:1] [0:1] [0:1] [0:1] [0:1] [0:1] [0:1] [0:1] [0:1] [0:1] [0:1] [0:1] [0:1] [0:1] [0:1] [0:1] [0:1] [0:1] [0:1] [0:1] [0:1] [0:1] [0:1] [0:1] [0:1] [0:1] [0:1] [0:1] [0:1] [0:1] [0:1] [0:1] [0:1] [0:1] [0:1] [0:1] [0:1] [0:1] [0:1] [0:1] [0:1] [0:1] [0:1] [0:1] [0:1] [0:1] [0:1] [0:1] [0:1] [0:1] [0:1] [0:1] [0:1] [0:1] [0:1] [0:1] [0:1] [0:1] [0:1] [0:1] [0:1] [0:1] [0:1] [0:1] [0:1] [0:1] [0:1] [0:1] [0:1] [0:1] [0:1] [0:1] [0:1] [0:1] [0:1] [0:1] [0:1] [0:1] [0:1] [0:1] [0:1] [0:1] [0:1] [0:1] [0:1] [0:1] [0:1] [0:1] [0:1] [0:1] [0:1] [0:1] [0:1] [0:1] [0:1] [0:1] [0:1] [0:1] [0:1] [0:1] [0:1] [0:1] [0:1] [0:1] [0:1] [0:1] [0:1] [0:1] [0:1] [0:1] [0:1] [0:1] [0:1] [0:1] [0:1] [0:1] [0:1] [0:1] [0:1] [0:1] [0:1] [0:1] [0:1] [0:1] [0:1] [0:1] [0:1] [0:1] [0:1] [0:1] [0:1] [0:1] [0:1] [0:1] [0:1] [0:1] [0:1] [0:1] [0:1] [0:1] [0:1] [0:1] [0:1] [0:1] [0:1] [0:1] [0:1] [0:1] [0:1] [0:1] [0:1] [0:1] [0:1] [0:1] [0:1] [0:1] [0:1] [0:1] [0:1] [0:1] [0:1] [0:1] [0:1] [0:1] [0:1] [0:1] [0:1] [0:1] [0:1] [0:1] [0:1] [0:1] [0:1] [0:1] [0:1] [0:1] [0:1] [0:1] [0:1] [0:1] [0:1] [0:1] [0:1] [0:1] [0:1] [0:1] [0:1] [0:1] [0:1] [0:1] [0:1] [0:1] [0:1] [0:1] [0:1] [0:1] [0:1] [0:1] [0:1] [0:1] [0:1] [0:1] [0:1] [0:1] [0:1] [0:1] [0:1] [0:1] [0:1] [0:1] [0:1] [0:1] [0:1] [0:1] [0:1] [0:1] [0:1] [0:1] [0:1] [0:1] [0:1] [0:1] [0:1] [0:1] [0:1] [0:1] [0:1] [0:1] [0:1] [0:1] [0:1] [0:1] [0:1] [0:1] [0:1] [0:1] [0:1] [0:1] [0:1] [0:1] [0:1] [0:1] [0:1] [0:1] [0:1] [0:1] [0:1] [0:1] [0:1] [0:1] [0:1] [0:1] [0:1] [0:1] [0:1] [0:1] [0:1] [0:1] [0:1] [0:1] [0:1] [0:1] [0:1] [0:1] [0:1] [0:1] [0:1] [0:1] [0:1] [0:1] [0:1] [0:1] [0:1] [0:1] [0:1] [0:1] [0:1] [0:1] [0:1] [0:1] [0:1] [0:1] [0:1] [0:1] [0:1] [0:1] [0:1] [0:1] [0:1] [0:1] [0:1] [0:1] [0:1] [0:1] [0:1] [0:1] [0:1] [0:1] [0:1] [0:1] [0:1] [0:1] [0:1] [0:1] [0:1] [0:1] [0:1] [0:1] [0:1] [0:1] [0:1] [0:1] [0:1] [0:1] [0:1] [0:1] [0:1] [0:1] [0:1] [0:1] [0:1] [0:1] [0:1] [0:1] [0:1] [0:1] [0:1] [0:1] [0:1] [0:1] [0:1] [0:1] [0:1] [0:1] [0:1] [0:1] [0:1] [0:1] [0:1] [0:1] [0:1] [0:1] [0:1] [0:1] [0:1] [0:1] [0:1] [0:1] [0:1] [0:1] [0:1] [0:1] [0:1] [0:1] [0:1] [0:1] [0:1] [0:1] [0:1] [0:1] [0:1] [0:1] [0:1] [0:1] [0:1] [0:1] [0:1] [0:1] [0:1] [0:1] [0:1] [0:1] [0:1] [0:1] [0:1] [0:1] [0:1] [0:1] [0:1] [0:1] [0:1] [0:1] [0:1] [0:1] [0:1] [0:1] [0:1] [0:1] [0:1] [0:1] [0:1] [0:1] [0:1] [0:1] [0:1] [0:1] [0:1] [0:1] [0:1] [0:1] [0:1] [0:1] [0:1] [0:1] [0:1] [0:1] [0:1] [0:1] [0:1] [0:1] [0:1] [0:1] [0:1] [0:1] [0:1] [0:1] [0:1] [0:1] [0:1] [0:1] [0:1] [0:1] [0:1] [0:1] [0:1] [0:1] [0:1] [0:1] [0:1] [0:1] [0:1] [0:1] [0:1] [0:1] [0:1] [0:1] [0:1] [0:1] [0:1] [0:1] [0:1] [0:1] [0:1] [0:1] [0:1] [0:1] [0:1] [0:1] [0:1] [0:1] [0:1] [0:1] [0:1] [0:1] [0:1] [0:1] [0:1] [0:1] [0:1] [0:1] [0:1] [0:1] [0:1] [0:1] [0:1] [0:1] [0:1] [0:1] [0:1] [0:1] [0:1] [0:1] [0:1] [0:1] [0:1] [0:1] [0:1] [0:1] [0:1] [0:1] [0:1] [0:1] [0:1] [0:1] [0:1] [0:1] [0:1] [0:1] [0:1] [0:1] [0:1] [0:1] [0:1] [0:1] [0:1] [0:1] [0:1] [0:1] [0:1] [0:1] [0:1] [0:1] [0:1] [0:1] [0:1] [0:1] [0:1] [0:1] [0:1] [0:1] [0:1] [0:1] [0:1] [0:1] [0:1] [0:1] [0:1] [0:1] [0:1] [0:1] [0:1] [0:1] [0:1] [0:1] [0:1] [0:1] [0:1] [0:1] [0:1] [0:1] [0:1] [0:1] [0:1] [0:1] [0:1] [0:1] [0:1] [0:1] [0:1] [0:1] [0:1] [0:1] [0:1] [0:1] [0:1] [0:1] [0:1] [0:1] [0:1] [0:1] [0:1] [0:1] [0:1] [0:1] [0:1] [0:1] [0:1] [0:1] [0:1] [0:1] [0:1] [0:1] [0:1] [0:1] [0:1] [0:1] [0:1] [0:1] [0:1] [0:1] [0:1] [0:1] [0:1] [0:1] [0:1] [0:1] [0:1] [0:1] [0:1] [0:1] [0:1] [0:1] [0:1] [0:1] [0:1] [0:1] [0:1] [0:1] [0:1] [0:1] [0:1] [0:1] [0:1] [0:1] [0:1] [0:1] [0:1] [0:1] [0:1] [0:1] [0:1] [0:1] [0:1] [0:1] [0:1] [0:1] [0:1] [0:1] [0:1] [0:1] [0:1] [0:1] [0:1] [0:1] [0:1] [0:1] [0:1] [0:1] [0:1] [0:1] [0:1] [0:1] [0:1] [0:1] [0:1] [0:1] [0:1] [0:1] [0:1] [0:1] [0:1] [0:1] [0:1] [0:1] [0:1] [0:1] [0:1] [0:1] [0:1] [0:1] [0:1] [0:1] [0:1] [0:1] [0:1] [0:1] [0:1] [0:1] [0:1] [25:25] [7:7] [7:7] [0:1] [-0.53178095817565918:0.46266797184944153] [0:1] none [-0.52418309450149536:0.53429108858108521] [0:1] none [-0.51498794555664062:0.4691542387008667] [0:1] none
tree_sizes=679 672 674 690 689 695 689 693 690 696 689 687 692 688 694 690 692 696 690 685 694 693 689 692 695 688 691 695 695 688 689 689 699 695 690 697 690 690 695 692 695 700 696 689 692

Tree=0
num_leaves=5
num_cat=0
split_feature=3241 750 1883 96
split_gain=85.7841 61.1449 22.9267 23.5225
threshold=1.0000000180025095e-35 -1.0000000180025095e-35 1.0000000180025095e-35 -46.078153610229485
decision_type=2 2 2 2
left_child=1 -1 3 -2
right_child=2 -3 -4 -5
leaf_value=-0.66394345445782577 -0.66692989155435844 -0.61819496580689115 -0.68169252890712673 -0.61920880031797398
leaf_weight=36.102921307086945 29.403410136699677 92.304376125335693 53.22389429807663 13.026827275753019
leaf_count=83 69 141 138 20
internal_value=-0.647123 -0.631133 -0.668575 -0.652261
internal_weight=224.061 128.407 95.6541 42.4302
internal_count=451 224 227 89
is_linear=0
shrinkage=1


Tree=1
num_leaves=5
num_cat=0
split_feature=2741 1731 1773 1154
split_gain=92.638 20.8834 37.8903 18.5542
threshold=1.0000000180025095e-35 1.0000000180025095e-35 1.0000000180025095e-35 1.0000000180025095e-35
decision_type=2 2 2 2
left_child=1 3 -3 -1
right_child=-2 2 -4 -5
leaf_value=-2.9390102779976832 -2.7364324901140731 -2.7483263054074776 -2.9398287887396233 -2.8418398402516503
leaf_weight=38.141941376030445 2.2839485853910437 1.5226323902606957 2.131685346364975 1.7510272487997998
leaf_count=366 25 20 25 15
internal_value=-2.91857 -2.92833 -2.86064 -2.93462
internal_weight=45.8312 43.5473 3.65432 39.893
internal_count=451 426 45 381
is_linear=0
shrinkage=1


Tree=2
num_leaves=5
num_cat=0
split_feature=3239 2694 750 106
split_gain=89.7738 57.473 38.2283 22.4858
threshold=1.0000000180025095e-35 1.0000000180025095e-35 -1.0000000180025095e-35 70.500000000000014
decision_type=2 2 2 8
left_child=1 2 3 -1
right_child=-2 -3 -4 -5
leaf_value=-0.81905422409757711 -0.83540891887890156 -0.89731434346136418 -0.87807735144140941 -0.86635965929685244
leaf_weight=23.290323257446289 73.873994082212448 63.320566356182098 44.397178709506989 14.192540735006331
leaf_count=63 183 101 77 27
internal_value=-0.862245 -0.87592 -0.8594 -0.837181
internal_weight=219.075 145.201 81.88 37.4829
internal_count=451 268 167 90
is_linear=0
shrinkage=1


Tree=3
num_leaves=5
num_cat=0
split_feature=3241 750 2948 3657
split_gain=67.6044 52.1821 23.544 21.8462
threshold=1.0000000180025095e-35 1.0000000180025095e-35 1.0000000180025095e-35 1.0000000180025095e-35
decision_type=2 2 2 2
left_child=1 -1 -2 -4
right_child=2 -3 3 -5
leaf_value=-0.015103542759861607 -0.02683063578755035 0.026619069235810124 -0.02218133477947036 0.030003073752320336
leaf_weight=36.898951381444931 71.576637774705887 95.73302435874939 13.048381268978119 14.896460831165314
leaf_count=83 175 146 31 22
internal_value=0.000948044 0.0149448 -0.0176934 0.00543093
internal_weight=232.153 132.632 99.5215 27.9448
internal_count=457 229 228 53
is_linear=0
shrinkage=0.03


Tree=4
num_leaves=5
num_cat=0
split_feature=2741 2440 1727 3006
split_gain=62.9657 23.8284 57.6978 11.3515
threshold=1.0000000180025095e-35 1.0000000180025095e-35 1.0000000180025095e-35 1.0000000180025095e-35
decision_type=2 2 2 2
left_child=1 3 -3 -1
right_child=-2 2 -4 -5
leaf_value=-0.020333791443319812 0.15270964483527227 -0.020282798435648793 0.18147540143446952 0.050865191012497792
leaf_weight=37.929780296981335 2.1824847757816306 3.5362759605050078 1.8871312588453291 2.02136106789112
leaf_count=354 20 46 19 18
internal_value=-0.00106154 -0.00862621 0.0498091 -0.0166353
internal_weight=47.557 45.3745 5.42341 39.9511
internal_count=457 437 65 372
is_linear=0
shrinkage=0.03


Tree=5
num_leaves=5
num_cat=0
split_feature=1362 2273 3063 2952
split_gain=55.2044 40.9276 40.0403 24.7005
threshold=3.2282176931630608e-08 1.0000000180025095e-35 1.0000000180025095e-35 1.0000000180025095e-35
decision_type=10 2 2 2
left_child=2 -2 -1 -3
right_child=1 3 -4 -5
leaf_value=0.022015372212551541 -0.024095893242563796 0.041808374061521346 -0.025748488361515744 -0.027574637764666232
leaf_weight=94.419618159532547 92.619606733322144 15.40654629468918 18.499395221471786 6.1417621076107016
leaf_count=223 151 41 28 14
internal_value=-0.000746777 -0.0154254 0.0140935 0.0213128
internal_weight=227.087 114.168 112.919 21.5483
internal_count=457 206 251 55
is_linear=0
shrinkage=0.03


Tree=6
num_leaves=5
num_cat=0
split_feature=3063 3193 2269 1731
split_gain=66.9667 47.1302 30.2063 27.3803
threshold=1.0000000180025095e-35 1.0000000180025095e-35 1.0000000180025095e-35 1.0000000180025095e-35
decision_type=2 2 2 2
left_child=1 -1 3 -2
right_child=2 -3 -4 -5
leaf_value=-0.020613685609457675 0.033161104377826461 0.022480145613452379 -0.03128337167040586 -0.015625073150333596
leaf_weight=119.65822890400887 69.518746376037598 27.748721659183502 8.5797981023788434 11.50485849380493
leaf_count=281 98 44 22 26
internal_value=-2.6985e-05 -0.0124388 0.020369 0.026076
internal_weight=237.01 147.407 89.6034 81.0236
internal_count=471 325 146 124
is_linear=0
shrinkage=0.03


Tree=7
num_leaves=5
num_cat=0
split_feature=1958 2741 2342 829
split_gain=41.5186 72.7839 24.8604 8.26195
threshold=1.0000000180025095e-35 1.0000000180025095e-35 1.0000000180025095e-35 1.0000000180025095e-35
decision_type=2 2 2 10
left_child=2 -2 3 -1
right_child=1 -3 -4 -5
leaf_value=-0.020259086474069567 -0.0082670548609157617 0.23564805269316591 0.10054925967502999 0.014114028539325502
leaf_weight=34.944567866623402 2.7032319232821456 1.7103172838687895 1.6682588234543789 7.5661864578723899
leaf_count=342 27 16 18 68
internal_value=-0.000887087 0.0858426 -0.00964282 -0.0141083
internal_weight=48.5926 4.41355 44.179 42.5108
internal_count=471 43 428 410
is_linear=0
shrinkage=0.03


Tree=8
num_leaves=5
num_cat=0
split_feature=3063 3197 2269 3059
split_gain=59.5709 68.0998 33.9415 20.7697
threshold=1.0000000180025095e-35 1.0000000180025095e-35 1.0000000180025095e-35 1.0000000180025095e-35
decision_type=2 2 2 2
left_child=1 3 -2 -1
right_child=2 -3 -4 -5
leaf_value=0.026761901680249032 -0.025523626542291789 -0.030752697134449603 0.035674932911430896 -0.009869753794012906
leaf_weight=102.16207420825958 78.604888737201691 26.84672138094902 8.48578894138336 15.69387364387512
leaf_count=248 124 44 22 33
internal_value=0.000213667 0.0119925 -0.0193348 0.021817
internal_weight=231.793 144.703 87.0907 117.856
internal_count=471 325 146 281
is_linear=0
shrinkage=0.03


Tree=9
num_leaves=5
num_cat=0
split_feature=3241 2273 2315 1731
split_gain=60.3172 33.2765 17.2518 15.4622
threshold=1.0000000180025095e-35 1.0000000180025095e-35 1.0000000180025095e-35 1.0000000180025095e-35
decision_type=2 2 2 2
left_child=1 3 -2 -1
right_child=2 -3 -4 -5
leaf_value=0.022848212566609519 -0.024292797088573303 -0.024566793721025205 0.0067528060195219917 -0.016385287842378395
leaf_weight=105.66991755366325 74.184799253940582 17.149093866348267 20.106578379869461 9.2623658776283246
leaf_count=167 180 42 38 21
internal_value=0.000696545 0.0137558 -0.0175825 0.0195836
internal_weight=226.373 132.081 94.2914 114.932
internal_count=448 230 218 188
is_linear=0
shrinkage=0.03


Tree=10
num_leaves=5
num_cat=0
split_feature=2741 2440 2323 3663
split_gain=51.458 29.6421 23.2106 31.9325
threshold=1.0000000180025095e-35 1.0000000180025095e-35 1.0000000180025095e-35 1.0000000180025095e-35
decision_type=2 2 2 2
left_child=1 -1 3 -3
right_child=-2 2 -4 -5
leaf_value=-0.016338105247827202 0.12280975943174247 0.0018254919135052017 -0.019574839228867678 0.17844543098804619
leaf_weight=37.778604127466679 2.8423883765935889 1.5086628794670107 2.1472112387418747 2.0714043080806723
leaf_count=363 19 20 28 18
internal_value=0.00137217 -0.00669887 0.0563283 0.103099
internal_weight=46.3483 43.5059 5.72728 3.58007
internal_count=448 429 66 38
is_linear=0
shrinkage=0.03


Tree=11
num_leaves=5
num_cat=0
split_feature=3063 3190 3011 929
split_gain=50.2596 59.949 23.7027 21.7911
threshold=1.0000000180025095e-35 1.0000000180025095e-35 1.0000000180025095e-35 3.0037168264389043
decision_type=2 2 2 8
left_child=1 -1 -2 -4
right_child=2 -3 3 -5
leaf_value=0.019734935925622345 -0.026832768814917193 -0.029064898801381068 0.045531744569366255 -0.030804822124910074
leaf_weight=111.75486382842064 68.239078611135483 27.9373619556427 8.4012575745582545 4.9823390841484079
leaf_count=264 107 47 23 7
internal_value=-0.00099994 0.00990881 -0.0196464 0.0159977
internal_weight=221.315 139.692 81.6227 13.3836
internal_count=448 311 137 30
is_linear=0
shrinkage=0.03


Tree=12
num_leaves=5
num_cat=0
split_feature=3063 3193 2244 2035
split_gain=57.8568 38.853 29.727 22.5804
threshold=1.0000000180025095e-35 1.0000000180025095e-35 1.0000000180025095e-35 1.0000000180025095e-35
decision_type=2 2 2 2
left_child=1 3 -2 -1
right_child=2 -3 -4 -5
leaf_value=-0.026308254427886167 0.025093933291718648 0.019592750900582778 -0.036790628772849512 0.0042259454566127199
leaf_weight=89.7659592628479 77.955634474754333 28.931824952363968 7.0773147046566001 28.313209056854248
leaf_count=222 120 47 19 55
internal_value=6.95098e-05 -0.0113039 0.0197087 -0.018943
internal_weight=232.044 147.011 85.0329 118.079
internal_count=463 324 139 277
is_linear=0
shrinkage=0.03


Tree=13
num_leaves=5
num_cat=0
split_feature=2741 2342 1662 1718
split_gain=56.8675 28.5677 21.4289 12.898
threshold=1.0000000180025095e-35 1.0000000180025095e-35 1.0000000180025095e-35 1.0000000180025095e-35
decision_type=2 2 2 2
left_child=1 3 -2 -1
right_child=2 -3 -4 -5
leaf_value=-0.015830802670241336 0.038049528468315476 0.10721051030414029 0.17854412690975291 0.047954633313992308
leaf_weight=39.726164370775223 1.5927733927965158 1.8109443932771672 2.0535184442996979 2.9705447480082503
leaf_count=399 9 17 14 24
internal_value=0.00295758 -0.00636337 0.115263 -0.0113207
internal_weight=48.1539 44.5077 3.64629 42.6967
internal_count=463 440 23 423
is_linear=0
shrinkage=0.03


Tree=14
num_leaves=5
num_cat=0
split_feature=3241 750 3025 3031
split_gain=42.3686 36.3159 30.3679 19.7975
threshold=1.0000000180025095e-35 -0.052657250314950936 1.0000000180025095e-35 1.0000000180025095e-35
decision_type=2 2 2 2
left_child=1 -1 -2 -3
right_child=2 3 -4 -5
leaf_value=0.033106819082512604 0.019850929105363641 -0.022680885287279594 -0.032578312497085322 0.012709149973512841
leaf_weight=13.746679931879042 88.098059087991714 98.145852625370026 10.769562691450117 16.04691669344902
leaf_count=35 207 162 24 35
internal_value=-0.000699156 -0.0120758 0.0140143 -0.0176307
internal_weight=226.807 127.939 98.8676 114.193
internal_count=463 232 231 197
is_linear=0
shrinkage=0.03


Tree=15
num_leaves=5
num_cat=0
split_feature=1522 959 3180 2003
split_gain=58.0087 28.5006 18.8435 15.1367
threshold=52.500000000000007 -0.052136169746518128 1.0000000180025095e-35 1.0000000180025095e-35
decision_type=2 8 2 2
left_child=1 -1 3 -2
right_child=2 -3 -4 -5
leaf_value=-0.023833701389267752 -0.017118839926818046 0.019627843225002242 -0.033745900897585453 0.010834577914742221
leaf_weight=14.753664016723633 45.669636100530624 117.47775128483772 33.045936733484268 27.55596661567688
leaf_count=36 106 192 87 51
internal_value=0.00143959 0.0146781 -0.0150248 -0.00660211
internal_weight=238.503 132.231 106.272 73.2256
internal_count=472 228 244 157
is_linear=0
shrinkage=0.03


Tree=16
num_leaves=5
num_cat=0
split_feature=2247 2634 2809 2644
split_gain=32.1742 51.0326 25.1554 9.28478
threshold=1.0000000180025095e-35 1.0000000180025095e-35 1.0000000180025095e-35 1.0000000180025095e-35
decision_type=2 2 2 2
left_child=2 -2 3 -1
right_child=1 -3 -4 -5
leaf_value=-0.020183468194914986 -0.01901405554890576 0.16554432274039999 0.091143088615346493 0.015467544461425045
leaf_weight=34.126980774104595 2.6398646831512442 2.505512647330761 2.0761413797736159 8.0337342619895917
leaf_count=356 24 17 20 55
internal_value=-8.0863e-05 0.0702061 -0.00833065 -0.0133565
internal_weight=49.3822 5.14538 44.2369 42.1607
internal_count=472 41 431 411
is_linear=0
shrinkage=0.03


Tree=17
num_leaves=5
num_cat=0
split_feature=3239 994 1736 1162
split_gain=62.0237 42.4823 21.031 20.4485
threshold=1.0000000180025095e-35 -1.0000000180025095e-35 1.0000000180025095e-35 1.0000000180025095e-35
decision_type=2 10 2 2
left_child=1 2 -1 -2
right_child=3 -3 -4 -5
leaf_value=0.019333857393432699 0.027924989027635228 -0.025487608182695708 -0.018370174600679003 -0.0073333702639550649
leaf_weight=40.051134586334229 62.450375556945801 92.311942130327225 19.345254480838776 18.941204756498337
leaf_count=92 153 156 32 39
internal_value=-0.00145572 -0.0127722 0.00691079 0.0196077
internal_weight=233.1 151.708 59.3964 81.3916
internal_count=472 280 124 192
is_linear=0
shrinkage=0.03


Tree=18
num_leaves=5
num_cat=0
split_feature=3241 2273 26 2948
split_gain=51.959 33.7759 18.2503 14.5162
threshold=1.0000000180025095e-35 1.0000000180025095e-35 0.048941181972622878 1.0000000180025095e-35
decision_type=2 2 10 2
left_child=1 -1 3 -2
right_child=2 -3 -4 -5
leaf_value=0.018998432939785623 -0.026692321204136494 -0.022575571656781621 0.022917775719443 0.0017007019795123243
leaf_weight=108.41211673617363 71.91031152009964 20.404739916324615 9.2647494971752149 20.465799927711487
leaf_count=178 181 50 15 41
internal_value=-0.000302523 0.0123264 -0.0163001 -0.0203566
internal_weight=230.458 128.817 101.641 92.3761
internal_count=465 228 237 222
is_linear=0
shrinkage=0.03


Tree=19
num_leaves=5
num_cat=0
split_feature=2040 101 2440 676
split_gain=33.0047 18.1608 20.3541 15.7734
threshold=1.0000000180025095e-35 70089.136718750015 1.0000000180025095e-35 -0.17498890310525891
decision_type=2 8 2 2
left_child=1 -1 3 -3
right_child=-2 2 -4 -5
leaf_value=-0.015440672726914562 0.11054997110043048 0.082747547790025439 0.10813811815513814 -0.020777401345448625
leaf_weight=36.687422171235085 2.1872595623135558 1.6805135309696195 2.2583950236439705 4.9570569768547994
leaf_count=376 14 17 17 41
internal_value=-0.000664103 -0.00612232 0.0321082 0.00607688
internal_weight=47.7706 45.5834 8.89597 6.63757
internal_count=465 451 75 58
is_linear=0
shrinkage=0.03


Tree=20
num_leaves=5
num_cat=0
split_feature=3239 2694 750 2035
split_gain=61.913 38.5353 32.0502 15.0603
threshold=1.0000000180025095e-35 1.0000000180025095e-35 -1.0000000180025095e-35 1.0000000180025095e-35
decision_type=2 2 2 2
left_child=1 2 -1 -2
right_child=3 -3 -4 -5
leaf_value=0.021956036588339903 0.027947417211616622 -0.02968758424640772 -0.014603907931455981 -0.0051457854027905075
leaf_weight=38.316601395606995 64.795341491699219 59.399294704198837 48.1075100004673 14.850182324647902
leaf_count=90 162 101 84 28
internal_value=0.000450032 -0.0111488 0.00157806 0.0216572
internal_weight=225.469 145.823 86.4241 79.6455
internal_count=465 275 174 190
is_linear=0
shrinkage=0.03


Tree=21
num_leaves=5
num_cat=0
split_feature=1522 1731 3074 1715
split_gain=45.912 30.0684 28.8791 21.3654
threshold=94.500000000000014 1.0000000180025095e-35 1.0000000180025095e-35 1.0000000180025095e-35
decision_type=2 2 2 2
left_child=1 2 -1 -2
right_child=3 -3 -4 -5
leaf_value=0.020046255961037786 -0.030777090207455959 -0.027395413696350474 -0.011703893478087384 0.0035137123697274019
leaf_weight=107.45500779151917 53.868706732988358 18.799292266368866 33.301203519105911 22.991948515176773
leaf_count=176 141 47 74 46
internal_value=-0.00143471 0.00772691 0.0124919 -0.0204228
internal_weight=236.416 159.556 140.756 76.8607
internal_count=484 297 250 187
is_linear=0
shrinkage=0.03


Tree=22
num_leaves=5
num_cat=0
split_feature=1731 2694 1714 2791
split_gain=27.5432 29.4361 15.4911 30.1572
threshold=1.0000000180025095e-35 1.0000000180025095e-35 1.0000000180025095e-35 1.0000000180025095e-35
decision_type=2 2 2 2
left_child=2 -2 -1 -4
right_child=1 -3 3 -5
leaf_value=-0.015019014424037132 -0.0098427409782093789 0.11731916556555302 -0.019191305933957632 0.14534924886928849
leaf_weight=38.946626216173172 2.9820581376552573 3.3745361268520355 2.3151106387376776 1.5683116167783739
leaf_count=396 37 21 17 13
internal_value=-0.000678934 0.0571356 -0.009318 0.047087
internal_weight=49.1866 6.35659 42.83 3.88342
internal_count=484 58 426 30
is_linear=0
shrinkage=0.03


Tree=23
num_leaves=5
num_cat=0
split_feature=3239 994 3021 3000
split_gain=56.4359 28.1375 28.9603 21.7453
threshold=1.0000000180025095e-35 6.0103120803833017 1.0000000180025095e-35 1.0000000180025095e-35
decision_type=2 10 2 2
left_child=1 2 3 -1
right_child=-2 -3 -4 -5
leaf_value=0.030761911128626043 0.020883121387535553 -0.02738247133309242 -0.021324098176015525 -0.0054869245511787517
leaf_weight=29.862804561853409 85.650541931390762 51.903415977954865 35.161159545183182 28.82037952542305
leaf_count=75 205 89 61 54
internal_value=0.00161025 -0.00972859 2.85153e-05 0.0129021
internal_weight=231.398 145.748 93.8443 58.6832
internal_count=484 279 190 129
is_linear=0
shrinkage=0.03


Tree=24
num_leaves=5
num_cat=0
split_feature=3239 1731 2003 2315
split_gain=45.6004 24.0646 23.8649 20.055
threshold=1.0000000180025095e-35 1.0000000180025095e-35 1.0000000180025095e-35 1.0000000180025095e-35
decision_type=2 2 2 2
left_child=1 -1 -2 -3
right_child=2 3 -4 -5
leaf_value=0.014547351051851039 -0.029126468016870296 -0.038050085803411147 0.0062019343027321346 0.032441962103478862
leaf_weight=128.24701872467995 55.412992477416992 14.735866457223894 24.461804866790771 4.3797692060470572
leaf_count=223 145 40 48 6
internal_value=-1.7643e-05 0.00985993 -0.0182155 -0.0210849
internal_weight=227.237 147.363 79.8748 19.1156
internal_count=462 269 193 46
is_linear=0
shrinkage=0.03


Tree=25
num_leaves=5
num_cat=0
split_feature=2040 2440 48 2741
split_gain=21.5953 16.4116 36.3873 7.04398
threshold=1.0000000180025095e-35 1.0000000180025095e-35 0.10627016052603723 1.0000000180025095e-35
decision_type=2 2 2 2
left_child=1 3 -3 -1
right_child=-2 2 -4 -5
leaf_value=-0.017667168725319544 0.091028036535165946 -0.020423352790215753 0.12097192001994153 0.031502195284057691
leaf_weight=35.603639014065266 2.0346118807792655 3.9166515916585913 2.675367683172226 2.7285352796316138
leaf_count=366 12 50 20 14
internal_value=-0.00225956 -0.00658607 0.0368049 -0.0141013
internal_weight=46.9588 44.9242 6.59202 38.3322
internal_count=462 450 70 380
is_linear=0
shrinkage=0.03


Tree=26
num_leaves=5
num_cat=0
split_feature=3239 750 2952 2003
split_gain=52.096 38.8219 30.4522 19.534
threshold=1.0000000180025095e-35 1.0000000180025095e-35 1.0000000180025095e-35 1.0000000180025095e-35
decision_type=2 2 2 2
left_child=1 2 -1 -2
right_child=3 -3 -4 -5
leaf_value=0.026682143403323335 0.029427002096952544 -0.021384369881192147 -0.027473649126959394 -0.002415281937462137
leaf_weight=33.917413890361786 56.249264299869537 95.354011982679367 12.409641355276106 24.565255761146545
leaf_count=83 145 161 25 48
internal_value=0.000495023 -0.0104498 0.011934 0.019659
internal_weight=222.496 141.681 46.3271 80.8145
internal_count=462 269 108 193
is_linear=0
shrinkage=0.03


Tree=27
num_leaves=5
num_cat=0
split_feature=3241 2694 2284 3219
split_gain=45.1892 18.3335 14.6557 14.4706
threshold=1.0000000180025095e-35 1.0000000180025095e-35 1.0000000180025095e-35 1.0000000180025095e-35
decision_type=2 2 2 2
left_child=1 2 -1 -2
right_child=3 -3 -4 -5
leaf_value=-0.0036359185428306022 -0.017312376814134323 0.025775993565646978 0.030670079619109145 0.033713016451493077
leaf_weight=60.368848860263824 95.410049974918365 52.204857707023621 13.227146625518797 4.8373152017593375
leaf_count=125 229 80 19 7
internal_value=0.000276717 0.0122273 0.00264113 -0.0147125
internal_weight=226.048 125.801 73.596 100.247
internal_count=460 224 144 236
is_linear=0
shrinkage=0.03


Tree=28
num_leaves=5
num_cat=0
split_feature=2741 1729 1085 1154
split_gain=25.2353 19.6848 18.3349 14.5828
threshold=1.0000000180025095e-35 1.0000000180025095e-35 1.0000000180025095e-35 1.0000000180025095e-35
decision_type=2 2 2 2
left_child=1 3 -2 -1
right_child=2 -3 -4 -5
leaf_value=-0.017059638744759249 -0.0028138091198504707 0.084057910734415223 0.11270740356413543 0.053602446151739182
leaf_weight=37.677422825247049 1.8939020037651051 1.9107050374150265 2.7978485375642776 2.7306398153305045
leaf_count=404 9 14 14 19
internal_value=-0.000442124 -0.00775289 0.0648626 -0.0122075
internal_weight=47.0105 42.3188 4.69175 40.4081
internal_count=460 437 23 423
is_linear=0
shrinkage=0.03


Tree=29
num_leaves=5
num_cat=0
split_feature=3241 728 1883 1735
split_gain=35.6551 41.5798 20.2518 17.267
threshold=1.0000000180025095e-35 241.91639709472659 1.0000000180025095e-35 1.0000000180025095e-35
decision_type=2 2 2 2
left_child=1 -1 3 -2
right_child=2 -3 -4 -5
leaf_value=-0.02105694783004149 -0.010824703897749071 0.020035675011424704 0.024737314324086747 0.037995902694713445
leaf_weight=91.589285552501678 36.370843291282654 28.640087008476257 56.905871868133545 7.455766648054122
leaf_count=157 73 67 143 20
internal_value=-0.00018891 -0.0111977 0.0129454 -0.00227678
internal_weight=220.962 120.229 100.732 43.8266
internal_count=460 224 236 93
is_linear=0
shrinkage=0.03


Tree=30
num_leaves=5
num_cat=0
split_feature=3063 1938 994 1552
split_gain=36.7188 37.6842 24.0009 12.1994
threshold=1.0000000180025095e-35 1.0000000180025095e-35 1.0000000180025095e-35 0.71952396631240856
decision_type=2 2 8 2
left_child=1 -1 3 -2
right_child=2 -3 -4 -5
leaf_value=-0.017322058172136109 -0.031080924228048874 0.017077518712319564 0.025098685084424734 0.029817303634889554
leaf_weight=105.06845390796661 11.733159124851225 38.896626800298691 65.650410979986191 3.5229882597923288
leaf_count=253 31 67 102 5
internal_value=0.00108482 -0.00798747 0.017207 -0.0160046
internal_weight=224.872 143.965 80.9066 15.2561
internal_count=458 320 138 36
is_linear=0
shrinkage=0.03


Tree=31
num_leaves=5
num_cat=0
split_feature=1731 1775 2839 878
split_gain=20.9606 26.3186 14.3001 13.5547
threshold=1.0000000180025095e-35 1.0000000180025095e-35 1.0000000180025095e-35 52.318181991577156
decision_type=2 2 2 10
left_child=2 -2 -1 -4
right_child=1 -3 3 -5
leaf_value=-0.017603445362466264 0.097161780913656376 -0.019661127804101237 0.069317154365936565 -0.019681188241999773
leaf_weight=34.121438771486282 3.8919948488473883 2.9350873902440071 3.5629597902297965 2.5170567631721497
leaf_count=354 19 37 27 21
internal_value=-0.00180675 0.0464289 -0.0100505 0.0319806
internal_weight=47.0285 6.82708 40.2015 6.08002
internal_count=458 56 402 48
is_linear=0
shrinkage=0.03


Tree=32
num_leaves=5
num_cat=0
split_feature=3239 3031 1715 3051
split_gain=43.1585 35.4315 18.5612 16.7012
threshold=1.0000000180025095e-35 1.0000000180025095e-35 1.0000000180025095e-35 1.0000000180025095e-35
decision_type=2 2 2 2
left_child=1 3 -2 -1
right_child=2 -3 -4 -5
leaf_value=-0.0015273278319615691 0.026590136275066237 0.016616806707772467 -0.0044048656543683026 -0.02686235730060434
leaf_weight=33.476431578397751 54.927702605724335 32.274959683418274 24.929479509592056 74.536676228046417
leaf_count=66 141 74 48 129
internal_value=-0.000722027 -0.0107268 0.0168307 -0.0189658
internal_weight=220.145 140.288 79.8572 108.013
internal_count=458 269 189 195
is_linear=0
shrinkage=0.03


Tree=33
num_leaves=5
num_cat=0
split_feature=3063 1938 2244 2810
split_gain=40.9876 28.9221 25.8263 17.8251
threshold=1.0000000180025095e-35 1.0000000180025095e-35 1.0000000180025095e-35 1.0000000180025095e-35
decision_type=2 2 2 2
left_child=1 3 -2 -1
right_child=2 -3 -4 -5
leaf_value=-0.021668048004117847 0.021963412738611552 0.012213971893140505 -0.033070239776736524 0.022720403619548121
leaf_weight=100.17513969540596 72.661015689373016 37.729059666395187 8.0005524158477765 8.4557312130928022
leaf_count=251 117 68 22 14
internal_value=-0.000820795 -0.0102686 0.016299 -0.0181277
internal_weight=227.021 146.36 80.6616 108.631
internal_count=472 333 139 265
is_linear=0
shrinkage=0.03


Tree=34
num_leaves=5
num_cat=0
split_feature=1870 2741 3193 1384
split_gain=27.5263 21.5021 17.5595 18.7925
threshold=1.0000000180025095e-35 1.0000000180025095e-35 1.0000000180025095e-35 1.5000000000000002
decision_type=2 2 2 2
left_child=1 2 -1 -4
right_child=-2 -3 3 -5
leaf_value=-0.020095290145384335 0.10633713865013183 0.054436332525356672 -0.0056917015511239108 0.097044635556567574
leaf_weight=34.061073794960976 2.0162931159138671 4.9015627503395072 3.9952752590179434 2.4689329639077187
leaf_count=395 10 22 27 18
internal_value=0.00049082 -0.00431909 -0.0114947 0.0335043
internal_weight=47.4431 45.4268 40.5253 6.46421
internal_count=472 462 440 45
is_linear=0
shrinkage=0.03


Tree=35
num_leaves=5
num_cat=0
split_feature=3239 2694 1736 1602
split_gain=35.5972 35.1583 23.6038 27.8162
threshold=1.0000000180025095e-35 1.0000000180025095e-35 1.0000000180025095e-35 1.0000000180025095e-35
decision_type=2 2 2 2
left_child=1 2 3 -1
right_child=-2 -3 -4 -5
